<?xml version="1.0"?>
<opencv_storage>
<opencv_ml_svm>
  <format>3</format>
  <svmType>C_SVC</svmType>
  <kernel>
    <type>LINEAR</type></kernel>
  <C>32.</C>
  <term_criteria><iterations>1000</iterations></term_criteria>
  <var_count>6804</var_count>
  <class_count>2</class_count>
  <class_labels type_id="opencv-matrix">
    <rows>2</rows>
    <cols>1</cols>
    <dt>i</dt>
    <data>
      0 1</data></class_labels>
  <sv_total>1</sv_total>
  <support_vectors>
    <_>
      8.59904848e-03 1.01162093e-02 1.12315407e-02 6.85172295e-03
      9.04410332e-03 2.25344044e-03 -3.71548696e-04 -8.03273986e-04
      2.26182188e-03 5.53181535e-03 8.95855948e-03 6.78943330e-03
      3.44131421e-03 8.05416424e-03 1.78418079e-04 -5.16490405e-03
      -4.39358875e-03 5.06223179e-04 -5.95649704e-03 5.62716369e-03
      8.08676053e-03 6.06700359e-03 2.99660861e-03 4.37770039e-03
      1.26482308e-04 -1.37356166e-02 -1.16005149e-02 -9.49841831e-03
      4.44056874e-04 1.92049856e-03 -8.01406743e-04 1.74714194e-03
      9.99882468e-04 -1.18261506e-03 -2.09217463e-02 -1.12231355e-02
      8.08297284e-03 8.39101896e-03 6.68553123e-03 3.62534309e-03
      9.80821624e-03 4.35869582e-03 -2.56908475e-03 -4.30199225e-03
      5.06162737e-03 5.27526205e-03 8.69434420e-03 8.29393324e-03
      3.81089910e-03 1.40141025e-02 -2.92095286e-03 -1.02617079e-02
      -9.59081482e-03 -1.10109337e-03 -4.00027819e-03 3.87158291e-03
      1.03606109e-03 2.98482220e-04 1.05966898e-02 3.75119457e-03
      -2.17514316e-04 -1.67399999e-02 -9.04455408e-03 -8.64448119e-03
      4.45845490e-03 2.97437352e-03 2.22141785e-03 1.32976482e-02
      2.15147785e-03 -5.44233946e-03 -1.60455219e-02 -1.62182171e-02
      8.86082463e-03 1.26876151e-02 9.90951899e-03 9.87496134e-03
      1.08511467e-02 -1.21535978e-03 -8.69741943e-03 -1.00542726e-02
      -7.32768327e-03 4.43084259e-03 1.55596770e-02 1.32027715e-02
      1.07006896e-02 9.97082703e-03 6.84742350e-03 -1.96950673e-03
      -1.20543521e-02 -6.54124888e-03 -4.40115063e-03 8.69236514e-03
      6.03426760e-03 5.92225417e-03 9.09421314e-03 2.67012231e-03
      -5.12497919e-03 -1.46437613e-02 -1.56604815e-02 -3.28866858e-03
      6.53888891e-03 7.09410198e-03 6.74001500e-03 8.47364403e-03
      7.59773562e-03 -5.28780837e-03 -1.58057790e-02 -1.22833336e-02
      2.13948870e-03 1.41416593e-02 1.32704871e-02 1.35932537e-02
      9.68013424e-03 9.39959288e-03 -1.10298418e-03 -1.32665616e-02
      -6.36892579e-03 2.31505395e-03 1.26955006e-02 1.43520189e-02
      1.55981816e-02 1.34016983e-02 1.27775632e-02 -4.94835619e-03
      -6.09994214e-03 -5.31158550e-03 -4.34436183e-03 6.54424261e-03
      1.00989211e-02 1.41442176e-02 1.39667047e-02 9.78441257e-03
      -1.12448670e-02 -1.83591805e-02 -1.72674209e-02 -7.61377672e-03
      5.71183721e-03 8.40470754e-03 1.74533725e-02 1.89353079e-02
      1.49189737e-02 -8.82083643e-03 -1.57782044e-02 -2.00166777e-02
      6.47789659e-03 1.71491541e-02 1.53584601e-02 1.59252901e-02
      1.46773448e-02 1.18727461e-02 -7.16336723e-03 -9.81302839e-03
      -2.67290464e-03 9.29579139e-03 1.83270480e-02 1.65750869e-02
      1.83454212e-02 1.77185778e-02 8.36062711e-03 -4.55606775e-03
      -1.05412649e-02 2.41900422e-03 -8.42551049e-03 6.74730539e-03
      4.95996000e-03 1.01180468e-02 1.29120015e-02 7.95347244e-03
      -8.82634893e-03 -1.59599520e-02 -1.75441206e-02 -6.04709191e-03
      8.06000922e-03 4.09105048e-03 6.81800209e-03 1.06819635e-02
      3.09707294e-03 -7.80740287e-03 -1.75701641e-02 -1.63232982e-02
      1.26972320e-02 2.03947332e-02 1.78282447e-02 1.55133549e-02
      1.72029082e-02 8.92961305e-03 -9.77491363e-05 -9.98583622e-03
      4.34504170e-03 6.44381484e-03 1.57238878e-02 1.47570698e-02
      9.69676580e-03 1.65378824e-02 1.01764072e-02 -3.31013324e-03
      -1.07371751e-02 4.95906966e-03 -2.73129134e-03 8.93379655e-03
      4.47901292e-03 3.77979851e-03 1.03975432e-02 6.20860001e-03
      -5.79033606e-03 -1.79133303e-02 -1.72946006e-02 -9.86429024e-03
      2.16594897e-03 3.54860537e-03 5.64067217e-04 1.25222653e-02
      6.72721537e-04 -1.32872267e-02 -2.19926480e-02 -1.94464587e-02
      8.17345176e-03 1.48983458e-02 1.35509474e-02 1.39989601e-02
      1.68893989e-02 9.05807223e-03 -3.97440325e-03 -8.69764946e-03
      8.02683830e-03 8.05835612e-03 2.04329323e-02 1.76699627e-02
      1.88915487e-02 1.64875370e-02 5.42527763e-03 -1.06439600e-03
      -5.03864605e-03 5.17418841e-03 -1.30152050e-02 9.13006137e-04
      6.39767665e-03 5.76871261e-03 1.46789821e-02 6.61358994e-04
      -1.27147483e-02 -1.77459512e-02 -2.36555692e-02 -1.30048580e-02
      4.80186241e-03 9.23582911e-03 1.26331039e-02 1.29127745e-02
      4.22481541e-03 -5.69531601e-03 -1.39048006e-02 -1.97082702e-02
      8.15705396e-03 1.76750459e-02 1.55142862e-02 1.18934792e-02
      9.34200175e-03 5.28039085e-03 -4.02153656e-03 -9.70586576e-03
      -2.17194133e-03 1.17500983e-02 1.99578442e-02 1.63772330e-02
      1.26557471e-02 1.32306898e-02 1.06444946e-02 -1.58305222e-03
      -6.99628331e-03 6.39936654e-04 -9.78302397e-03 5.16311359e-03
      5.04455343e-03 6.81414222e-03 7.34462170e-03 3.95950774e-04
      -8.09746236e-03 -1.68119688e-02 -1.93898920e-02 -2.06055655e-03
      6.77329209e-03 8.73091351e-03 6.29278179e-03 9.41524561e-03
      2.91122007e-03 -7.98926223e-03 -1.36077991e-02 -1.20350579e-02
      1.10698594e-02 1.77919138e-02 1.37967989e-02 9.86007042e-03
      1.00853723e-02 5.46798715e-03 -6.01049094e-03 -1.01951789e-02
      -2.24139207e-04 1.17616998e-02 2.08939556e-02 1.34593686e-02
      1.06370868e-02 1.35968896e-02 5.62547473e-03 -7.00898515e-03
      -3.54434829e-03 4.34023468e-03 -3.37313884e-03 1.29872095e-03
      1.72616541e-03 2.30457284e-03 3.91673390e-03 1.21541845e-03
      -1.22950254e-02 -1.30445650e-02 -1.14328433e-02 -3.12340190e-03
      5.71672665e-03 4.24733292e-03 4.76232031e-03 3.13791097e-03
      3.70849180e-03 -1.40375374e-02 -1.26064876e-02 -7.09756929e-03
      8.63786414e-03 1.70605294e-02 1.39829526e-02 1.11229485e-02
      1.19791785e-02 3.80204991e-03 -7.84096681e-03 1.49926031e-03
      7.26679759e-03 1.24548422e-02 1.97863989e-02 1.49161052e-02
      9.61048715e-03 8.27321224e-03 1.10983418e-03 -5.65089472e-03
      3.64788738e-03 6.78633479e-03 -9.57357790e-03 2.48180120e-04
      5.33510139e-03 5.09871403e-03 2.18587415e-03 1.35435362e-03
      -1.55319087e-02 -1.23944059e-02 -9.79922153e-03 -9.27444268e-03
      1.16576091e-03 6.86910469e-03 5.41133154e-03 1.00106583e-03
      -1.72287808e-03 -1.22904321e-02 -1.67040303e-02 -1.25784064e-02
      1.50065981e-02 1.81142408e-02 1.09664090e-02 8.13060347e-03
      5.44884987e-03 2.16285931e-03 -5.16000483e-03 2.65264558e-03
      8.10221490e-03 1.29842432e-02 1.54798757e-02 1.08816074e-02
      7.87748490e-03 2.53576669e-03 -9.38755169e-04 -7.31102983e-03
      3.54430126e-03 6.78717718e-03 -6.42560609e-03 8.56647547e-03
      6.69647846e-03 5.45813842e-03 2.66828295e-03 4.03516897e-04
      -6.63349591e-03 -1.77754760e-02 -1.14270011e-02 -1.67269458e-03
      1.39052942e-02 9.29355901e-03 7.79550336e-03 2.21613212e-03
      -7.65340868e-04 -8.63771513e-03 -1.10835740e-02 -1.22351758e-02
      1.01225283e-02 1.38619840e-02 1.15659442e-02 8.71296134e-03
      3.06405080e-03 -9.08695347e-06 -9.77655686e-03 3.05552571e-03
      9.27080121e-03 1.04480349e-02 1.36321159e-02 1.43128065e-02
      8.84719007e-03 5.71992109e-03 2.62293941e-03 -8.34785495e-03
      5.34523092e-03 6.59818016e-03 -6.14322303e-03 1.48454877e-02
      1.20344916e-02 8.67084041e-03 1.23941258e-03 -1.44207245e-03
      -1.16111049e-02 -1.08859250e-02 -1.11475289e-02 -7.08792638e-03
      9.97729693e-03 1.15023879e-02 9.45154205e-03 2.06500315e-03
      6.35545293e-04 -8.57586041e-03 -1.21332258e-02 -1.21477898e-02
      8.70363787e-03 1.21236667e-02 1.25646126e-02 1.06401173e-02
      8.51073209e-03 2.74822488e-03 -1.12987701e-02 -9.89395485e-05
      5.32133505e-03 7.78322387e-03 9.75333806e-03 1.09012062e-02
      9.63786710e-03 9.59728286e-03 8.45450675e-04 -1.09903375e-02
      -1.71659165e-03 9.06075630e-03 -5.81846433e-03 9.45640355e-03
      7.25647621e-03 7.07667600e-03 4.71444102e-03 -1.01766747e-03
      -1.27187110e-02 -6.69093570e-03 -1.01733617e-02 -1.04222698e-02
      6.22626673e-03 4.32760280e-04 1.39684242e-03 5.05675189e-03
      -6.17048051e-03 -1.80880167e-02 -9.07675922e-03 -1.18695898e-02
      9.87711642e-03 7.79595133e-03 8.39717779e-03 6.83708070e-03
      7.00297626e-03 1.41540670e-03 -5.43440040e-03 -1.11624505e-03
      1.09798769e-02 7.12641934e-03 8.56797118e-03 1.10092768e-02
      9.28230677e-03 9.01088025e-03 2.62049329e-03 -8.57511908e-03
      -3.16437334e-03 2.16891733e-03 -1.00781815e-02 2.73472816e-03
      5.30875614e-03 3.43694794e-03 4.09702957e-03 -2.23400514e-03
      -1.35329738e-02 -1.07588898e-02 -9.70126595e-03 -1.05550103e-02
      7.79460417e-04 9.67589486e-03 9.45092365e-03 6.66421372e-03
      7.13831687e-04 -1.44256083e-02 -1.02402922e-02 -8.16822983e-03
      3.49849951e-03 6.57916395e-03 5.36632910e-03 6.90710871e-03
      3.72654828e-03 2.01395969e-03 -9.52911936e-03 -7.51002366e-03
      -1.77999679e-03 1.10087423e-02 1.05483839e-02 1.27157141e-02
      9.59860161e-03 5.80373453e-03 5.77477086e-03 -4.26004222e-03
      -2.80520413e-03 5.95417526e-03 -9.93574504e-03 -1.10741192e-03
      3.12494254e-03 6.94173435e-03 1.54901459e-03 6.97310723e-04
      -1.53838499e-02 -1.41182272e-02 -8.89936462e-03 -3.25356930e-04
      7.66708935e-03 1.13276811e-02 9.01860185e-03 2.99972179e-03
      5.27819898e-03 -1.46905463e-02 -1.26273837e-02 -8.10596067e-03
      1.21553894e-02 1.28012206e-02 1.65561046e-02 9.36292764e-03
      2.34148582e-03 9.07933339e-04 -6.11192826e-03 -3.66198365e-03
      2.22675502e-03 1.49430810e-02 1.07905297e-02 1.02517959e-02
      3.65957292e-03 -1.48764718e-03 -2.68226862e-03 -5.60740614e-03
      2.71031214e-03 6.80724671e-03 -1.70970103e-03 4.77447780e-03
      1.21556837e-02 5.58488397e-03 2.48302426e-03 -3.47827241e-04
      -1.92734264e-02 -1.56865474e-02 -9.79555305e-03 -5.76845277e-03
      4.97945491e-03 5.24422806e-03 -5.14413150e-05 -2.75625265e-03
      -7.05734780e-03 -1.95153486e-02 -1.37078138e-02 -8.41311924e-03
      6.51765009e-03 5.36339357e-03 5.15417010e-03 3.29511706e-03
      9.12593387e-04 2.52224097e-04 -3.77795449e-03 4.64120507e-03
      9.43624973e-03 3.19168484e-03 4.31445986e-03 7.60740275e-03
      4.21721209e-03 2.72004935e-03 5.32227801e-03 -5.42369531e-03
      1.16330432e-03 5.80989197e-03 -9.72030219e-03 2.61121406e-03
      2.05927435e-03 -4.61710244e-03 -6.04211760e-04 -2.98627582e-03
      -1.35947531e-02 -8.58636200e-03 -4.92063910e-03 -1.14958957e-02
      1.43064559e-03 4.56129666e-03 -1.22895697e-03 3.05474596e-03
      3.21366685e-03 -1.05645480e-02 -9.71321389e-03 -8.07713624e-03
      3.03644082e-03 5.74367680e-03 6.21597748e-03 2.85307202e-03
      2.15285644e-03 4.78138449e-03 -8.69747438e-03 -6.92913192e-04
      4.66012070e-03 4.05850355e-03 1.10556334e-02 7.25381495e-03
      1.92231883e-03 3.64072900e-03 -1.88590423e-03 -8.13135784e-03
      -2.91866995e-03 3.97439674e-03 -6.50093006e-03 1.65693695e-03
      1.50325499e-03 2.19145906e-03 3.42599535e-03 3.37405247e-03
      -1.17293932e-02 -7.05828983e-03 -8.05398822e-03 -3.61493835e-03
      2.67249276e-03 1.15743424e-04 9.18978709e-04 5.21519175e-03
      7.60691764e-04 -1.25785219e-02 -7.18301162e-03 -6.25954103e-03
      5.58079546e-03 1.21127889e-02 9.87581071e-03 2.05055275e-03
      2.93224724e-03 -5.54513885e-03 -8.50851089e-03 -5.77494083e-03
      2.30146712e-03 4.93027130e-03 1.28932716e-02 1.33455936e-02
      6.41578529e-03 6.50129560e-03 2.00032264e-05 -5.90723986e-03
      -1.49521965e-03 1.70201599e-03 -2.03974592e-03 7.98268535e-04
      2.52191513e-03 -1.39814755e-03 1.12028793e-03 -7.03187007e-03
      -1.41946413e-02 -7.93767255e-03 -5.61197707e-03 -8.43749288e-03
      -6.46756496e-04 5.33058029e-03 1.61686668e-03 1.94086658e-03
      -5.42986486e-03 -8.17595888e-03 -4.12660697e-03 -3.79208382e-03
      2.03989097e-03 6.21872582e-03 5.86351613e-03 5.25945425e-03
      6.34605205e-03 5.21618687e-03 -4.29368671e-03 2.51064066e-05
      3.16195376e-03 3.93991312e-03 1.00881467e-02 5.66684455e-03
      1.55450951e-03 2.80313287e-03 6.39749598e-03 9.11261188e-04
      3.27065890e-03 4.55010822e-03 -1.39416791e-02 -5.87384496e-03
      -2.95160804e-04 1.22776220e-03 1.39581261e-03 -1.21570274e-03
      -8.98756832e-03 -5.29997516e-03 -2.50990083e-03 -8.90840590e-03
      -2.52294960e-03 -3.61757539e-03 -2.56952317e-03 -3.05088540e-03
      2.73954036e-04 -9.33792815e-03 -8.12805817e-03 -5.99388219e-03
      1.48196064e-03 8.24199244e-03 7.89620727e-03 1.80259545e-03
      2.70200591e-03 -1.29388669e-03 -5.60001796e-03 4.06865915e-03
      7.82824680e-03 2.94381683e-03 1.54898618e-03 4.34732018e-03
      2.20873556e-03 2.18827883e-03 -7.93221220e-03 -5.77848684e-03
      -8.35072366e-04 5.74975926e-03 -4.67428751e-03 3.51041416e-03
      2.87450524e-03 -9.67116794e-04 -1.26330342e-04 -4.65749856e-03
      -1.64024774e-02 -6.83518872e-03 -4.05705674e-03 -5.32773603e-03
      3.92497954e-04 3.98939336e-03 6.81476376e-05 -1.26100099e-03
      -1.08442269e-02 -1.84600726e-02 -8.84334557e-03 -2.57023401e-03
      4.49327892e-03 1.23798626e-03 1.69878278e-03 -2.03807140e-03
      -5.61870693e-04 -7.21307844e-03 -2.07689474e-03 -1.53064006e-03
      6.41379319e-03 1.10717155e-02 1.11855343e-02 5.51759871e-03
      -6.11355761e-04 -8.17696098e-04 -4.08518221e-03 -1.76471716e-03
      2.24859407e-03 7.94655085e-03 -1.81289495e-03 -8.32814490e-04
      -2.17306823e-03 -1.46222638e-03 -1.16090383e-03 -1.11772139e-02
      -1.30479401e-02 -6.12566946e-03 -4.91055660e-03 6.17054151e-03
      6.81478577e-03 -6.23668835e-04 2.65420438e-03 -7.31637701e-04
      -8.66512954e-03 -1.07487235e-02 -6.48686569e-03 -3.16557218e-03
      7.13455211e-03 7.03432085e-03 -4.82889271e-04 -3.16872424e-03
      -7.01136189e-03 -6.95743039e-03 -7.22529367e-03 1.71654156e-05
      6.51978515e-03 7.77077908e-03 6.53975131e-03 2.22271844e-03
      -1.91255764e-03 -1.10521615e-02 -2.23934883e-03 -2.57633487e-03
      3.16006877e-03 8.86165723e-03 1.57994230e-03 1.20949473e-04
      -2.30256328e-03 -2.55416054e-03 -1.01396181e-02 -9.67037585e-03
      -1.24609219e-02 -1.05163315e-02 -3.92733980e-03 4.62815398e-03
      3.06016440e-03 2.08929414e-03 -3.27215559e-04 -7.59546552e-03
      -5.56236738e-03 -1.00170746e-02 -4.98614693e-03 2.31764140e-03
      3.47133842e-03 3.80729744e-03 3.42510059e-03 -4.66123596e-03
      -1.04579339e-02 -5.34204999e-04 -2.49828584e-03 6.23113848e-03
      5.72411297e-03 -6.25920016e-04 -1.36869866e-03 -2.23418768e-03
      -1.25556923e-02 -1.08960252e-02 -8.45026039e-03 -1.37110252e-03
      2.80054333e-03 -3.11461510e-04 2.30221427e-03 1.53431646e-03
      2.70711840e-03 -7.17353541e-03 -6.75218366e-03 -7.76524004e-03
      -6.68718247e-03 3.59892147e-03 4.68191272e-03 -1.45945710e-03
      -1.64612243e-03 -4.36047529e-04 -7.17867492e-03 -5.45390695e-03
      -8.62151198e-03 -6.84691826e-03 1.89371791e-03 -3.06973606e-03
      2.58624204e-03 2.52725673e-03 1.67312450e-03 -6.54289825e-03
      -1.36439633e-02 -1.05334986e-02 -3.05216690e-03 -3.49260372e-04
      -1.95114606e-03 4.45037335e-03 2.83631799e-03 6.97590527e-04
      -2.87861284e-03 -1.14165070e-02 -7.67855672e-03 -4.66533937e-03
      7.33496563e-04 3.92760895e-03 -2.34521786e-03 -5.38294087e-04
      3.86108691e-03 -4.57151653e-03 -7.92965386e-03 -8.46414920e-03
      -6.31277869e-03 4.67238948e-03 -1.16520899e-03 9.15093842e-05
      -1.46420614e-03 1.87654141e-03 1.66596365e-04 -8.88867956e-03
      -1.35422614e-03 -3.39408149e-03 9.00008064e-03 4.73058736e-03
      5.78705396e-04 2.31660600e-03 -1.78270682e-03 -5.93710283e-04
      -7.92945083e-03 -2.65038153e-03 -4.58318740e-03 3.14092753e-03
      4.01256606e-03 -6.33040257e-03 2.66437675e-03 2.59735389e-04
      6.51358208e-03 -8.13678931e-03 -4.35702037e-03 -4.31685103e-03
      -1.79111853e-03 -5.88857662e-03 1.78612117e-03 1.16130617e-03
      2.50653317e-03 4.38060751e-03 -2.90877302e-03 -1.15526607e-03
      -9.12260148e-04 5.11996541e-03 2.19983817e-03 -5.99705847e-03
      1.87897542e-03 2.99864961e-03 4.49205283e-03 -2.99701001e-03
      -9.61284805e-03 -5.93669387e-03 -5.20290248e-03 -5.56827942e-03
      -6.25034282e-03 6.84502861e-03 5.55198407e-03 4.90821619e-03
      -1.14169484e-03 3.75694805e-03 5.16996998e-03 5.22069540e-03
      -7.23056309e-03 -6.78443164e-03 5.06151048e-03 4.32707416e-03
      -3.47217172e-03 -3.55154695e-03 2.68726004e-03 4.43117926e-03
      2.98079825e-03 -8.10252503e-03 -3.76591721e-04 6.69715041e-03
      5.91657404e-03 4.19083890e-03 5.39583561e-05 -1.65308558e-03
      1.97245693e-03 -4.36240109e-04 -4.33762558e-03 -1.05316434e-02
      -3.39928712e-03 -2.39549976e-04 -9.44865402e-03 -6.87166117e-03
      -5.76503761e-03 -1.51741330e-03 -5.21685043e-03 -1.26460027e-02
      7.49347964e-03 6.54360186e-03 6.66954834e-03 5.56447962e-03
      3.85656371e-03 1.19322177e-03 -1.14380520e-04 -4.61024465e-03
      -9.07288026e-03 1.83683704e-03 5.86490240e-03 6.23763073e-03
      4.00531478e-03 4.26672958e-03 2.20311317e-03 1.27136160e-03
      -6.61868649e-03 -1.14796460e-02 -2.76094466e-03 8.48597009e-03
      5.54148387e-03 4.80809435e-03 4.63547558e-03 8.91209673e-03
      6.64221775e-03 -3.13517870e-03 -7.83922151e-03 -5.31325769e-03
      7.19786249e-03 8.38132668e-03 7.52946036e-03 4.68428340e-03
      6.36609877e-03 7.17931706e-03 -1.14333620e-02 -6.11250382e-03
      7.58457649e-03 8.98191053e-03 6.36314740e-03 3.87848611e-03
      5.42438868e-03 3.46677680e-03 2.49868282e-03 -7.56304432e-03
      -1.04406681e-02 1.97453308e-03 1.09969946e-02 8.20730720e-03
      4.10023844e-03 5.36630023e-03 4.35667858e-03 1.03745970e-03
      -7.16195768e-03 -1.01189772e-02 -3.88955185e-03 1.22224344e-02
      1.10149179e-02 1.05380574e-02 5.30780805e-03 4.66957409e-03
      5.91309648e-03 -8.69400892e-03 -6.87826751e-03 -5.16506983e-03
      1.06828874e-02 1.04342736e-02 8.75832234e-03 4.98547358e-03
      3.91594507e-03 4.45844652e-03 -1.05186431e-02 -7.15902075e-03
      1.09745539e-03 1.30038578e-02 8.77334084e-03 4.68593277e-03
      5.92174847e-03 3.73054342e-03 8.89512303e-04 -7.28368806e-03
      -8.01254250e-03 3.96617036e-03 9.64014325e-03 9.21733212e-03
      4.68079699e-03 4.56739403e-03 5.96986199e-03 -1.09142798e-03
      -4.62805014e-03 -5.35338139e-03 -6.79403637e-03 1.29192034e-02
      9.37182829e-03 6.75158529e-03 4.53191623e-03 4.10095369e-03
      3.60095548e-03 -8.81104358e-03 -8.76693614e-03 -8.28747451e-03
      1.24507062e-02 7.48736272e-03 5.69790881e-03 6.90638646e-03
      6.73002657e-03 7.64393853e-03 -5.61495731e-03 -7.61743495e-03
      1.37530616e-03 7.73985218e-03 8.65260605e-03 6.50635641e-03
      7.70546868e-03 7.02888845e-03 -3.53774428e-03 -5.84141677e-03
      -1.00868577e-02 2.85736006e-03 6.14518207e-03 6.09149830e-03
      7.62806553e-03 9.84098669e-03 7.54926912e-03 -5.49865374e-03
      -7.85571709e-03 -8.35184846e-03 -6.06047502e-03 8.12415313e-03
      6.49561035e-03 3.62635357e-03 1.07459100e-02 4.88177966e-03
      7.07859034e-03 -9.66601889e-04 -4.09823563e-03 -2.08285777e-03
      8.50647781e-03 6.13633217e-03 4.96514188e-03 9.79065895e-03
      1.76538737e-03 1.91270650e-04 -7.31256185e-03 -3.12855141e-03
      3.79046868e-03 5.91362128e-03 4.25751321e-03 3.78145115e-03
      6.35868078e-03 3.72304325e-03 -4.17577941e-03 -9.46007296e-03
      -5.56767778e-03 3.97296436e-03 8.67267232e-03 5.50227379e-03
      3.16125597e-03 5.29816467e-03 3.45287332e-03 -5.32937469e-03
      -9.65413451e-03 -6.59379130e-03 4.96255374e-03 8.63512699e-03
      6.16662344e-03 5.07206935e-03 4.29120380e-03 2.40161596e-03
      -2.81190096e-05 -1.07426709e-02 -2.79818103e-03 2.29217857e-03
      9.12682060e-03 9.02282819e-03 5.77232940e-03 5.18784393e-03
      5.31022390e-03 -5.23754116e-03 -4.15312918e-03 -3.23094567e-03
      3.10627976e-03 8.59457999e-03 5.51196467e-03 4.28962242e-03
      1.03101591e-02 4.95670689e-03 -7.08954828e-03 -1.31768221e-02
      -1.11513641e-02 2.83077330e-04 4.45421180e-03 4.48572868e-03
      4.28986317e-03 1.14595089e-02 1.58391695e-03 -5.87822124e-03
      -1.57686751e-02 -1.82283875e-02 3.67843983e-04 7.95949250e-03
      9.58865043e-03 4.92586149e-03 1.09680519e-02 1.01831714e-02
      -2.04475014e-03 -3.33024631e-03 -2.24217633e-03 1.75670517e-04
      -1.79167709e-03 8.76558479e-03 5.94203593e-03 1.30880978e-02
      8.00874829e-03 5.81482367e-04 -7.51747098e-03 -9.62289982e-03
      -2.12939270e-03 3.30118975e-03 5.01683354e-03 3.39403586e-03
      1.20598376e-02 1.52956101e-03 -6.70689344e-03 -1.77952573e-02
      -1.80909634e-02 -1.16839877e-03 7.61101861e-03 7.88901746e-03
      7.95533974e-03 1.15383621e-02 5.01604844e-03 -4.77343844e-03
      -1.53534189e-02 -1.17231319e-02 1.98454107e-03 -1.77029602e-03
      6.10081200e-03 4.62923199e-03 1.19141750e-02 7.70217367e-03
      -3.71764872e-05 -1.09173497e-02 -7.78015982e-03 5.61077660e-03
      6.37100590e-03 9.43470746e-03 9.46420617e-03 1.21911885e-02
      1.08363675e-02 2.54592072e-04 -7.71327084e-03 -2.50911363e-03
      5.38910797e-04 8.39753542e-03 8.29524733e-03 4.10946552e-03
      8.11720174e-03 2.36798706e-03 -5.56194875e-03 -1.68711245e-02
      -9.47476272e-03 4.34760656e-03 8.92188679e-03 8.79464019e-03
      3.01853940e-03 6.89318310e-03 8.60188564e-04 -7.72335939e-03
      -1.44723598e-02 -6.96206698e-03 1.07174311e-02 7.03943474e-03
      1.05235809e-02 4.00509033e-03 6.66570524e-03 3.11660394e-03
      -3.98760801e-03 -1.28920535e-02 -1.80816767e-03 1.29408380e-02
      8.67989380e-03 9.41304862e-03 4.72454773e-03 2.10162043e-03
      -1.17594935e-03 -1.03553375e-02 -1.30664939e-02 -2.60388246e-03
      1.62574358e-03 5.75216440e-03 4.09060111e-03 2.24755635e-03
      9.26985929e-04 -1.15309178e-03 -1.05363140e-02 -1.42291170e-02
      -9.55643598e-03 1.38572778e-03 7.12351268e-03 5.28562721e-03
      4.34723776e-03 1.56387535e-03 9.40573693e-04 -6.48938725e-03
      -5.67032257e-03 -3.63732176e-03 8.74573831e-03 1.50587773e-02
      7.10018538e-03 3.43571580e-03 -8.06417665e-04 -3.73220327e-03
      -1.46952486e-02 -1.51780201e-02 -3.88541073e-03 8.81652348e-03
      1.40607730e-02 6.74245460e-03 4.62209992e-03 1.03590370e-03
      -3.73046240e-03 -1.02546690e-02 -1.20000038e-02 3.50351492e-03
      -1.68955803e-03 2.35173106e-03 4.24066698e-03 2.90675787e-03
      2.27948607e-04 2.15063381e-04 -7.49614183e-03 -8.59538000e-03
      -4.43204539e-03 4.49715124e-04 7.69366464e-03 4.01580194e-03
      2.76358565e-03 9.11358875e-05 -2.40104878e-03 -1.07085658e-02
      -1.23321936e-02 -4.84926486e-03 8.91535636e-03 1.14067886e-02
      5.53561421e-03 3.84900509e-03 -2.65692885e-04 -3.35379969e-03
      -1.24078123e-02 -1.03928698e-02 2.82375142e-03 4.96973563e-03
      1.24247642e-02 6.43588742e-03 5.75681590e-03 2.86519784e-03
      -1.52448611e-03 -1.20491711e-02 -8.55670311e-03 -1.66614438e-04
      5.49166230e-03 1.13930609e-02 5.40997367e-03 3.00672092e-03
      1.58579519e-03 -2.69043949e-06 -9.52065084e-03 -1.70069374e-02
      -3.95586714e-03 1.17717851e-02 1.67430807e-02 8.00216850e-03
      4.76799905e-03 1.30200060e-03 -6.36302750e-04 -6.63367473e-03
      -1.37164649e-02 -4.57247067e-03 5.39852539e-03 1.19415075e-02
      7.41008995e-03 3.24294926e-03 3.94789921e-03 4.53334814e-03
      -8.11919663e-03 -1.42733557e-02 -3.70926899e-03 7.95657374e-03
      1.54792499e-02 8.55506957e-03 3.27562611e-03 2.56414711e-03
      3.05234245e-03 -7.35883228e-03 -1.73200574e-02 -4.24582930e-03
      9.46788862e-03 1.64665189e-02 9.06542037e-03 5.77061065e-03
      1.53251947e-03 1.07820979e-05 -8.10522586e-03 -1.15071852e-02
      -5.92482043e-03 5.68974856e-03 1.56865343e-02 1.09258639e-02
      6.86381012e-03 2.24135350e-03 2.37145135e-03 -4.71138861e-03
      -8.90632812e-03 -7.91301485e-03 7.47212488e-03 1.80473197e-02
      9.38485097e-03 3.70491925e-03 1.15059724e-03 -2.54736817e-03
      -5.42615773e-03 -1.79794356e-02 -7.46283727e-03 5.26401214e-03
      1.58990715e-02 1.58420783e-02 4.47973469e-03 5.40531997e-04
      -2.63230293e-03 -6.15357235e-03 -1.58000328e-02 -8.29080213e-03
      1.44500169e-03 1.07116643e-02 6.57333387e-03 3.84894805e-03
      4.46897699e-03 -3.82372265e-04 -5.38359676e-03 -7.82364421e-03
      -8.45739804e-03 -1.98648265e-03 7.92615302e-03 2.13358202e-03
      1.21338863e-03 5.60548203e-03 -1.01196325e-04 -5.56630734e-03
      -7.64983846e-03 -9.36049037e-03 7.16917682e-03 1.42793488e-02
      1.28611159e-02 3.41875758e-03 2.10623886e-03 -1.67375244e-03
      -2.18092510e-03 -1.38862953e-02 -6.40385970e-03 -2.25623604e-03
      1.10370042e-02 8.44713580e-03 2.02926085e-03 6.19441550e-03
      1.13319966e-03 -6.89552352e-03 -1.16369342e-02 -4.06674575e-03
      -5.13310265e-03 6.54096901e-03 3.60340253e-03 3.37885600e-03
      5.60908625e-03 3.07598407e-03 -3.05062649e-03 -5.28818881e-03
      -9.91895981e-03 -2.34794221e-03 5.82094816e-03 7.42748426e-03
      5.09538502e-03 7.53612258e-03 4.47359961e-03 -1.68953068e-03
      -4.51265229e-03 -2.95376033e-03 -5.02158608e-03 7.40233157e-03
      4.06388287e-03 4.56649484e-03 6.05476461e-03 6.36750553e-03
      -2.38776533e-03 -9.83394869e-03 -5.26325498e-03 -7.09484098e-03
      2.77101342e-03 6.48542959e-03 5.42411534e-03 5.71824843e-03
      3.18149361e-03 2.06852528e-05 -1.07501838e-02 -3.74386087e-03
      -1.02527137e-03 9.08740424e-03 7.43095810e-03 6.95508206e-03
      5.92064345e-03 3.80829535e-03 -2.92244717e-03 -6.40897872e-03
      -5.21387858e-03 5.32882567e-03 1.29763968e-02 8.81758053e-03
      9.08681378e-03 6.98888721e-03 4.59896820e-03 -5.97280450e-03
      -5.10475552e-03 -5.18321712e-03 -2.14443984e-03 7.39111984e-03
      7.96846487e-03 6.03005290e-03 4.45594871e-03 2.15476006e-03
      3.87947279e-04 -1.84250064e-02 -6.39846269e-03 1.15881755e-03
      8.63175001e-03 6.34684088e-03 7.62497028e-03 5.86294709e-03
      4.40066075e-03 -6.46355376e-03 -1.83975715e-02 -9.04820580e-03
      2.92324880e-03 1.04872053e-02 7.01473374e-03 8.45525879e-03
      7.91933108e-03 2.67834170e-03 -9.08055436e-03 -5.58384089e-03
      -1.88844569e-03 2.05396165e-04 7.90221151e-03 4.52856626e-03
      6.42278325e-03 7.86232017e-03 5.53168415e-04 -7.75425555e-03
      -2.15151696e-03 -1.03654107e-03 -4.83960705e-03 8.67736805e-03
      4.65960102e-03 8.62241909e-03 7.52276462e-03 4.36066836e-03
      -7.85995740e-03 -1.89192910e-02 -8.27893615e-03 -6.11426542e-03
      7.61384144e-03 2.72431877e-03 7.64742633e-03 7.28267198e-03
      -1.29122171e-04 -9.62699950e-03 -1.58676207e-02 -6.23703655e-03
      2.73191312e-04 6.16839714e-03 4.99158353e-03 4.28174995e-03
      6.70109969e-03 -1.23581686e-03 -6.14240440e-03 -4.59048711e-03
      -8.60414759e-04 2.29342934e-03 7.65165221e-03 5.79329534e-03
      3.02227540e-03 5.70016215e-03 3.35155724e-04 -4.20878641e-03
      -2.10902072e-03 2.20869691e-03 -3.79244634e-03 2.57105962e-03
      2.48224707e-03 4.00426006e-03 6.31572353e-03 -2.91314744e-03
      -1.26902722e-02 -1.70500427e-02 -3.07127740e-03 -3.00355139e-03
      2.85978941e-03 4.82378993e-03 1.79204182e-03 4.34970483e-03
      -1.25818315e-03 -1.50176594e-02 -1.40550099e-02 -5.91117283e-03
      -5.92018187e-04 5.91652840e-03 2.72340188e-03 2.27262871e-03
      1.54336169e-03 -5.08135941e-04 -8.01676232e-03 -3.42901517e-03
      -1.03252742e-03 8.41417350e-04 6.99459249e-03 3.75215639e-03
      2.34710868e-03 1.95000961e-03 -9.73517483e-04 -7.64974672e-03
      -2.04234594e-03 -1.46514538e-03 -3.06153018e-03 7.76013080e-03
      5.07454947e-03 1.86677661e-03 1.31497113e-03 -2.14619399e-03
      -1.15375808e-02 -6.82573812e-03 -6.14835788e-03 -2.64645484e-03
      6.72905007e-03 3.51993972e-03 3.81614105e-03 2.06072466e-03
      4.75157838e-04 -7.26625416e-03 -1.00377053e-02 -5.94678428e-03
      4.79697017e-03 6.89447951e-03 3.76763707e-03 1.09216443e-03
      1.04865397e-03 -2.63383309e-03 -6.70537679e-03 -5.53941634e-03
      -7.07455864e-03 1.04004028e-03 4.17253375e-03 3.86825460e-03
      3.74606461e-03 4.89321118e-03 -9.15183569e-04 -3.07940296e-03
      -3.11478856e-03 1.37240975e-03 2.16366351e-03 5.11124311e-03
      -7.45842408e-04 3.68900318e-03 1.85254822e-03 -3.18556296e-04
      -1.03662694e-02 -9.72730294e-03 -5.58944792e-03 1.81707670e-03
      -6.56194403e-04 -2.71670800e-03 1.85580133e-03 3.58338119e-03
      -1.19229499e-03 -1.01865008e-02 -5.47244214e-03 -2.86827353e-03
      -4.74850321e-03 -5.32527280e-04 -3.43422958e-04 1.91903370e-03
      4.37353970e-03 8.60266213e-04 -2.92937621e-03 -4.62138746e-03
      2.08177394e-03 -5.68422116e-03 1.96468481e-03 3.24077730e-04
      -1.78147748e-03 1.10591738e-03 -3.93174705e-04 -6.68946607e-03
      -3.54153174e-03 -1.89713144e-03 -4.29884018e-03 -1.91023550e-03
      -3.20874224e-03 -3.40304361e-03 3.92494677e-03 -2.57374812e-03
      -7.43890693e-03 -4.06316668e-03 1.47641374e-04 -7.35549442e-03
      5.96506801e-03 -1.21361658e-03 -2.42031692e-03 3.20435129e-03
      -2.65319226e-03 -9.34246741e-03 -5.34642115e-03 -1.11775286e-03
      -2.72816932e-03 4.25542891e-03 4.53134300e-03 -5.21852111e-04
      -1.10040128e-03 -1.22406671e-03 -8.45547393e-03 -6.29380811e-03
      -4.57992079e-03 1.77248978e-04 6.45285007e-03 5.66004822e-03
      3.21652484e-03 2.33001891e-03 1.63586147e-03 -6.34803204e-03
      -6.28727814e-03 -5.89841045e-03 -2.42510461e-03 1.08810198e-02
      2.48413766e-03 -1.87156524e-03 1.63904263e-03 -2.57178000e-03
      -1.10010039e-02 -9.40820295e-03 -5.17691392e-03 -5.81413927e-03
      4.79499018e-03 -1.70871892e-04 -4.53447661e-04 -1.49157515e-03
      7.05980638e-04 -7.69571075e-03 -9.76429973e-03 -2.88225105e-03
      -1.76854304e-03 3.25428089e-03 1.71302049e-03 1.46681757e-03
      3.06016696e-03 1.33740265e-04 -6.35258388e-03 -5.74642373e-03
      -5.49324742e-03 3.81213380e-03 6.55526109e-03 4.84657520e-03
      3.82722961e-03 2.67840247e-03 -6.43548090e-04 -6.28108764e-03
      -5.86347422e-03 -1.26581977e-03 -7.40544964e-03 -8.84234731e-04
      -1.13782682e-03 -8.43597692e-04 7.55055924e-04 2.11230922e-03
      -5.73689677e-03 -9.22640227e-03 -6.43039308e-03 -5.72901778e-03
      2.35044328e-03 6.49607275e-03 4.10163123e-03 2.65207468e-03
      2.04777578e-03 -1.19067319e-02 -9.39307455e-03 -5.50549151e-03
      6.62440248e-03 4.56226990e-03 3.48208123e-03 1.87406095e-03
      2.95154843e-03 -3.77041695e-04 -7.52801076e-03 -9.74680204e-03
      2.04378692e-03 6.59894804e-03 6.15024241e-03 6.34133583e-03
      1.00362219e-03 1.95728056e-03 -3.48046841e-03 -9.22403298e-03
      -6.69609709e-03 6.34104153e-03 -4.40634089e-03 2.06042430e-03
      6.95869187e-03 4.82260715e-03 3.17607168e-03 3.11879767e-03
      -1.04004666e-02 -1.35444831e-02 -5.20304265e-03 -1.15256966e-03
      8.45104363e-03 9.18206573e-03 1.97727629e-03 2.26843636e-03
      -2.90526473e-03 -1.68625116e-02 -1.42160021e-02 2.35325788e-04
      6.71982765e-03 7.64494203e-03 8.91536660e-03 2.33858847e-03
      2.63022119e-03 -2.86834571e-03 -1.97606254e-03 2.47364934e-03
      2.52939318e-03 2.37669004e-03 7.97899440e-03 9.00602248e-03
      1.99086289e-03 1.50116137e-03 6.77273347e-05 3.08964937e-03
      5.03668468e-03 -4.57894290e-03 -4.86890599e-03 4.01822664e-03
      8.01599864e-03 2.90365005e-03 -1.39865908e-03 -9.85876285e-03
      -1.33014647e-02 -9.36387107e-03 -8.61509331e-03 -7.78625906e-03
      3.79347336e-03 3.83086083e-03 2.24168366e-03 -7.63608085e-04
      -5.25265746e-03 -6.34102058e-03 -1.12117445e-02 -9.40006319e-03
      -1.11640326e-03 6.75258460e-03 9.57577955e-03 1.84610393e-03
      -8.39436660e-04 -4.20202781e-03 -1.03937858e-03 3.10539501e-04
      -3.25326365e-03 1.00547145e-03 1.23701151e-02 1.36720408e-02
      4.21879394e-03 -1.80750410e-03 -3.10971937e-03 -2.41276505e-03
      9.90000321e-04 3.49889556e-03 -3.91406612e-03 8.01653881e-03
      7.39912689e-03 2.57959147e-03 -2.13369960e-03 -8.39237496e-03
      -9.83509887e-03 -1.79023538e-02 -1.27743008e-02 3.08949221e-03
      1.01914722e-02 1.60747636e-02 3.84857249e-03 -6.83697732e-03
      -1.00949910e-02 -1.43098235e-02 -1.57903656e-02 -7.91422650e-03
      6.18489168e-04 6.38257433e-03 4.23763972e-03 5.32446289e-03
      -1.01085193e-03 -3.70664452e-03 -1.59547699e-03 1.56438607e-03
      2.89561623e-03 -3.31908721e-03 2.56529194e-03 3.01424717e-03
      4.11466416e-03 1.92175596e-03 -2.76607205e-03 1.33525929e-03
      1.80583436e-03 5.57159501e-06 -2.26839795e-03 9.77672078e-03
      7.06178928e-03 -7.61238742e-04 -6.29945006e-03 -1.04118912e-02
      -1.00950627e-02 -5.72761800e-03 -5.54307410e-03 -6.21472858e-03
      8.44157673e-03 4.35124524e-03 -5.32464497e-03 -4.51587606e-03
      -6.84519298e-03 -8.98378342e-03 -5.60607063e-03 -1.15164397e-02
      -6.54716557e-03 4.15434828e-03 5.18625788e-03 5.31313883e-04
      1.87135825e-03 -9.58830293e-04 -1.69611617e-03 2.58651981e-03
      -3.68899107e-03 -6.99645840e-03 2.73123824e-05 2.13630428e-03
      -3.68333957e-03 -1.20092509e-03 -1.67319097e-03 -1.81191915e-03
      -2.36239401e-03 -4.78355959e-03 -8.06096289e-03 5.08948136e-03
      1.99340400e-03 -3.16075305e-03 1.48412003e-03 -1.71948876e-03
      -5.05704992e-03 -1.64874611e-04 -9.70438402e-03 -5.42138563e-03
      -4.81265085e-03 -2.83554918e-03 -3.83160799e-03 -1.68082630e-03
      -1.96256069e-03 -2.86850031e-03 4.04395163e-03 -7.40008568e-03
      -8.47300328e-03 4.29682946e-03 5.33851609e-03 4.20749187e-03
      5.39161870e-03 8.95440578e-03 7.93520175e-03 -4.52536298e-03
      -7.36414129e-03 -1.02799227e-02 3.57533107e-03 6.87806588e-03
      4.96979943e-03 5.59894182e-03 6.35709893e-03 8.78695771e-03
      -9.07985400e-03 -1.07342554e-02 -8.95009283e-03 1.16769969e-02
      1.39300004e-02 6.88783405e-03 7.86238909e-03 9.95099451e-03
      3.59311746e-03 -5.81886386e-03 -8.90959334e-03 -1.01882918e-02
      4.39009054e-05 9.47410148e-03 3.16803018e-03 6.14671828e-03
      1.10116797e-02 4.47191112e-03 -8.47252458e-03 -5.99786919e-03
      -8.61105137e-03 4.97376034e-03 9.25119221e-03 6.54394552e-03
      4.40688618e-03 4.49445192e-03 5.85470954e-03 -3.09943105e-03
      -1.02892518e-02 -9.91027709e-03 1.63478148e-03 8.62580258e-03
      6.34690421e-03 4.90427716e-03 4.32385644e-03 6.38840906e-03
      -4.20210185e-03 -1.04075531e-02 -7.56362732e-03 -2.18040077e-03
      5.75884478e-03 3.91222443e-03 5.32782357e-03 4.71838936e-03
      5.72104938e-03 -1.04308838e-03 -5.02847834e-03 -7.66004110e-03
      -2.49915291e-03 4.08856291e-03 5.07134292e-03 5.39179426e-03
      5.21056680e-03 1.12317689e-02 4.18890454e-03 -4.63659083e-03
      -1.16273137e-02 2.34270887e-03 5.90722635e-03 5.89145627e-03
      5.77500323e-03 2.81331129e-03 5.42523479e-03 -1.10232551e-03
      -1.22558139e-02 -1.55334547e-02 5.49541181e-03 7.81022850e-03
      5.87358512e-03 6.09039096e-03 4.35892865e-03 7.62313791e-03
      8.77901504e-04 -1.33108664e-02 -8.57015047e-03 2.19052934e-04
      3.68732261e-03 4.68247011e-03 5.02953213e-03 6.33933302e-03
      1.17816860e-02 5.83016872e-03 -6.20863540e-03 -1.11077316e-02
      -6.91136171e-04 6.51446823e-03 6.24961965e-03 5.44625940e-03
      6.13171514e-03 1.01878848e-02 6.88483380e-03 -6.46018656e-03
      -1.86018310e-02 4.48993593e-03 6.40259823e-03 4.56260704e-03
      4.80648922e-03 2.46771541e-03 8.66409857e-03 1.90435094e-03
      -1.10141654e-02 -1.30177578e-02 2.35273479e-03 2.88704038e-03
      2.10648729e-03 5.74470265e-03 4.04760195e-03 5.75951627e-03
      -1.76842476e-03 -6.68045180e-03 -9.97657143e-03 -7.61264746e-05
      5.57260867e-03 5.80995623e-03 3.74350231e-03 5.01095271e-03
      9.64225084e-03 4.79314942e-04 -8.71190336e-03 -2.06337566e-03
      4.84689977e-03 4.19985922e-03 2.29140860e-03 4.74094460e-03
      7.94896111e-03 5.65361744e-03 9.78884753e-04 -7.41981948e-03
      -8.21340829e-03 1.33753475e-03 2.58752890e-03 1.55567611e-03
      4.53682477e-03 2.75329873e-03 3.40809114e-03 -6.74481969e-03
      -5.51297842e-03 -8.35871045e-03 -1.38503441e-03 4.45460016e-03
      3.56575311e-03 5.20150643e-03 3.18918121e-03 -9.33825038e-04
      -3.51342023e-03 -6.44175848e-03 -4.49140882e-03 5.18491026e-03
      5.08212438e-03 3.86033847e-04 4.23908327e-03 4.25594579e-03
      7.08858203e-03 1.16181234e-03 -6.27265591e-03 -3.18392483e-03
      4.19747829e-03 6.60038041e-03 3.19165876e-03 4.41304035e-03
      4.71414416e-04 3.69068421e-03 -1.88751624e-03 -3.92279588e-03
      -7.25498004e-03 -2.56043370e-03 3.28402594e-03 3.26719112e-03
      5.82391443e-03 4.78203828e-03 -1.73238222e-03 -5.49165951e-03
      -6.95249857e-03 -4.03428264e-03 -4.43420140e-03 2.99858814e-03
      3.29677667e-03 5.69420308e-03 4.07886831e-03 -6.27029338e-04
      -6.11977698e-03 -7.67648034e-03 1.02731620e-03 8.17107409e-03
      3.53923137e-03 3.81996902e-03 5.23180841e-03 4.96434746e-04
      -3.53588280e-03 -1.08112339e-02 -6.36073016e-03 3.11883027e-03
      8.78999010e-03 5.32503473e-03 3.85060371e-03 4.27576713e-03
      1.77601876e-04 -3.70573648e-03 -1.02774743e-02 -3.47946817e-03
      -4.46749944e-03 -3.80803295e-03 1.11070124e-03 7.94682186e-04
      3.16156936e-03 1.77655346e-03 -2.09290371e-03 -9.79539845e-03
      -9.21244267e-03 7.53074593e-04 -6.35943143e-05 7.89685233e-04
      2.06295075e-03 9.25267488e-03 8.02099798e-03 -6.91771507e-03
      -1.31219048e-02 -2.66329735e-03 1.03502425e-04 7.74020655e-03
      2.79816380e-03 2.01492896e-03 2.88058817e-03 -5.10349579e-04
      -5.54110901e-03 -1.40785519e-02 -7.47692119e-03 3.77481268e-03
      1.87553337e-03 2.82090157e-04 7.22300773e-03 7.02481158e-03
      2.85999081e-03 -6.01562671e-03 -1.70422159e-02 -4.59953584e-03
      7.05748855e-04 6.24287641e-04 8.89463467e-04 1.91888458e-03
      8.35353788e-03 2.29378301e-03 -9.59105697e-03 -1.86977666e-02
      -2.09633703e-03 3.56695661e-03 2.05931277e-03 3.39865685e-03
      1.37712993e-03 6.97677024e-04 -2.90366542e-03 -1.11821275e-02
      -1.38782207e-02 -4.02391702e-03 2.81883986e-03 7.10301567e-04
      -9.32928117e-04 4.20605764e-03 7.62931351e-03 2.25595571e-03
      -3.21981823e-03 -1.68707874e-02 -3.64648760e-03 -7.95685686e-04
      -1.95699534e-03 9.12216026e-04 1.67413254e-03 6.13436708e-03
      1.65590493e-03 -5.57556329e-03 -9.41934995e-03 -4.27805027e-03
      3.40531929e-03 5.85897826e-03 7.87254830e-04 -1.84955727e-03
      -1.48520921e-03 -4.25854279e-03 -1.11473333e-02 -1.50076859e-02
      -3.08296783e-03 5.79229929e-03 9.20245610e-03 5.31537517e-04
      -3.24796559e-03 -1.25557254e-03 -7.53536401e-03 -1.10563468e-02
      -1.46549940e-02 -2.71579926e-03 6.25650748e-04 2.82328157e-03
      -6.76702010e-04 -6.31333387e-04 8.27257929e-04 -1.58479263e-03
      -5.90908667e-03 -6.39495533e-03 -2.15637265e-03 5.29785780e-03
      7.15572061e-03 1.69599138e-03 1.73370267e-04 2.39303382e-03
      -5.21814590e-03 -5.09238522e-03 -1.00461338e-02 -4.67296952e-04
      5.37497597e-03 5.78781590e-03 -1.08950678e-03 -2.33915227e-04
      -2.89393007e-03 -1.08815748e-02 -1.55484071e-02 -8.44406895e-03
      -1.86831586e-03 1.23774097e-03 2.91588041e-03 -6.77627861e-04
      1.67180051e-03 -1.24325964e-03 -8.03519413e-03 -1.22980168e-02
      -4.92383260e-03 -5.18914720e-04 2.91164196e-03 6.09102826e-05
      -3.17646866e-03 -5.96824510e-04 -1.19999063e-03 -9.80603788e-03
      -9.56279878e-03 -4.65702498e-03 2.01414782e-03 1.26150448e-03
      -2.02008639e-03 -2.98453169e-03 -1.43617473e-03 -4.21218341e-03
      -8.87578260e-03 -7.93724228e-03 1.17886276e-03 3.71311628e-03
      -7.50568346e-04 1.48324441e-04 2.12581549e-03 -1.14851783e-03
      -5.55787410e-04 -3.34258773e-03 -8.57689604e-03 -8.74652062e-03
      -3.86176305e-03 2.45879259e-04 9.36490658e-04 5.79058426e-03
      7.61521456e-04 3.42405809e-04 -7.71569787e-04 -7.33401906e-03
      -1.08038187e-02 -3.66874039e-03 2.69471505e-03 -1.11294631e-03
      2.26889667e-03 -9.20646184e-04 -1.50484382e-03 -3.23410984e-03
      -4.17443132e-03 -5.27155492e-03 -6.79856807e-04 1.70750218e-03
      -1.24352227e-03 4.12652036e-03 2.11203936e-03 -1.67854584e-03
      -3.30891507e-03 -1.11357616e-02 -8.06746446e-03 -3.06638633e-03
      1.68357778e-03 3.36228544e-03 3.20316665e-03 -2.22455384e-03
      -1.70653989e-03 -7.76932435e-03 -1.33475075e-02 -1.44209908e-02
      -9.05525580e-04 6.46837009e-03 6.47419086e-03 6.50821673e-03
      -3.98045871e-03 -3.88951995e-03 -1.09130349e-02 -1.51687181e-02
      -1.41299991e-02 -1.34831143e-03 2.47197389e-03 -1.10360188e-03
      -1.83281570e-03 -4.79075452e-03 -3.92953726e-03 -9.81344562e-03
      -1.20710367e-02 -1.11124599e-02 1.42235088e-03 4.13612183e-03
      -3.59898346e-04 -3.50380037e-03 -6.89071557e-03 -3.05713527e-03
      -7.25471508e-03 -7.78707722e-03 -7.99118634e-03 3.74578335e-03
      4.77976818e-03 8.60338844e-03 7.69845257e-03 -1.30851252e-03
      -2.83485884e-03 -7.44164968e-03 -1.35495365e-02 -1.48915099e-02
      -1.96968252e-03 -1.89811364e-03 7.60674197e-03 2.76001007e-03
      -6.83887396e-04 -2.14246754e-03 -8.96361098e-03 -1.70318466e-02
      -1.33874184e-02 -2.58994405e-03 5.87397255e-03 3.35440133e-03
      -1.27791718e-03 -2.77961558e-03 -3.41899646e-03 -8.69112089e-03
      -9.55607370e-03 -5.55662904e-03 2.13733572e-03 6.43977197e-03
      4.18125279e-03 -4.14382899e-03 -6.95944857e-03 -8.77964497e-03
      -1.71128176e-02 -1.68215893e-02 -6.51053153e-03 1.33546651e-03
      -1.51087064e-03 5.64379524e-03 2.44394364e-03 2.28341972e-03
      -2.83756264e-04 -5.88980131e-03 -1.72550958e-02 -1.81109980e-02
      -2.84691108e-03 -3.93375382e-03 5.36834216e-03 1.12654641e-03
      -1.04452076e-03 -1.45850831e-03 -6.99545210e-03 -8.92579556e-03
      -1.65636446e-02 -4.53913724e-03 1.13748610e-02 8.03652406e-03
      1.35762838e-03 -2.01835041e-03 -6.09059865e-03 -1.21967616e-02
      -1.84432566e-02 -9.35609825e-03 1.82109629e-03 1.11201992e-02
      1.04438169e-02 2.79793493e-03 -5.25392545e-03 -4.16833395e-03
      -6.65448047e-03 -1.18965497e-02 -8.90327990e-03 1.59666245e-03
      1.38574617e-03 8.41397420e-03 3.95666063e-03 -1.28212792e-03
      -1.81920314e-03 -4.75043338e-03 -5.37158176e-03 -1.36284558e-02
      -5.35372226e-03 1.50637189e-03 4.63793706e-03 2.44009704e-03
      3.33507574e-04 -2.07202160e-03 -5.77581162e-03 -1.35614621e-02
      -1.22201331e-02 -5.99488569e-03 8.80468078e-03 9.10765398e-03
      3.79735790e-03 -6.13003271e-03 -5.81864500e-03 -4.03697649e-03
      -8.34414177e-03 -7.16631999e-03 -5.86246664e-04 6.56435266e-03
      -9.64575564e-04 -1.99744687e-03 -7.21644703e-03 -9.28876363e-03
      -1.18438751e-02 -1.60539690e-02 -6.13158243e-03 4.67122206e-03
      3.12898308e-03 6.84602698e-03 1.04705221e-03 1.61340728e-03
      3.70985898e-03 -2.43475754e-03 -1.54930428e-02 -1.34680625e-02
      -5.37423790e-03 3.38710961e-03 7.31040863e-03 -6.89450768e-04
      2.01849180e-05 6.49849186e-03 -2.59125722e-03 -1.14432927e-02
      -9.58255772e-03 -3.49361985e-03 1.09628029e-02 3.96027230e-03
      -1.94207591e-03 -5.63536445e-03 -2.81158322e-03 -8.41508526e-03
      -1.80102028e-02 -1.11767864e-02 3.00452788e-03 9.39840730e-03
      6.90706726e-03 -1.35536306e-03 -2.61230604e-03 3.52536165e-03
      -2.30221869e-03 -1.44900745e-02 -1.09494636e-02 -8.48134456e-04
      2.05064984e-03 6.95754774e-03 -1.55800168e-04 -3.10732913e-03
      2.19246862e-03 -6.11405121e-03 -1.25030065e-02 -1.19248917e-02
      -1.46681780e-03 1.04680844e-03 4.20731818e-03 -6.30413182e-04
      -1.31499581e-03 9.46082466e-04 -6.34557661e-03 -1.24623962e-02
      -8.66990350e-03 8.29863187e-04 7.07548019e-03 6.11181557e-03
      -3.11064953e-03 -5.74378157e-03 3.15224985e-04 -6.58274256e-03
      -1.23477839e-02 -1.18500656e-02 -2.74197827e-03 3.47216101e-03
      6.40647160e-03 -4.40826872e-03 -7.49433530e-05 -2.61418056e-03
      -7.79939350e-03 -1.28441080e-02 -6.51856838e-03 -1.08634122e-04
      -3.01591284e-03 1.16629247e-03 -1.23755087e-03 -6.76996831e-04
      -2.76233116e-03 -6.46544853e-03 -1.17917880e-02 -6.35689776e-03
      -3.95177165e-03 -2.26298952e-03 4.70684655e-03 3.12001677e-03
      8.76559294e-04 -2.71506305e-03 -3.06349364e-03 -6.53917808e-03
      -8.72775260e-03 -4.17116890e-03 1.66247739e-03 1.70339923e-03
      -1.38188316e-03 1.31357089e-03 -2.81598489e-03 -8.70861765e-03
      -1.33038322e-02 -8.70014913e-03 -1.36357103e-03 2.03132746e-03
      4.96956892e-03 1.69060216e-03 -2.27325852e-03 -4.10027709e-03
      -2.92625371e-03 -1.32863922e-02 -4.93110716e-03 -1.92293723e-03
      9.71188056e-05 3.62224760e-03 7.96079636e-04 1.77324971e-03
      -2.55544204e-03 -6.26683375e-03 -7.21641490e-03 -8.26747343e-03
      -6.34565949e-03 -6.68281456e-04 2.03098496e-03 -3.39334039e-03
      -1.53271074e-03 -4.75676311e-03 -9.07405838e-03 -5.71940793e-03
      -3.02476343e-03 7.30543805e-04 2.20269826e-03 4.28597908e-03
      7.46650854e-04 -4.10502404e-03 -5.26894396e-03 -5.10945497e-03
      -1.21420706e-02 -2.92010745e-03 3.11089418e-04 4.61191696e-04
      5.79811027e-03 -2.88405223e-03 -7.84547720e-03 -5.29372180e-03
      -8.61114077e-03 -1.25715612e-02 -2.69454764e-03 4.01774002e-03
      5.29781682e-04 4.15570661e-03 -1.77637659e-04 -1.60814007e-03
      -2.21993704e-03 -4.22626268e-03 -5.68259787e-03 -3.48299299e-03
      3.51025577e-04 1.79071410e-03 9.01321694e-03 2.41111591e-03
      2.07037083e-04 1.35270515e-04 -2.27316120e-03 -5.92415594e-03
      -8.62302817e-03 -6.77570142e-03 6.06974994e-04 4.45571216e-03
      -1.96107035e-03 -4.99811210e-03 -2.77210190e-03 -5.50118182e-03
      -1.07724015e-02 -5.92185836e-03 1.38552091e-03 4.19872697e-04
      4.56355140e-03 -2.39755097e-03 -3.20687192e-03 -5.09131374e-03
      -6.82122959e-03 -1.24859884e-02 -6.91060862e-03 -2.06940761e-03
      3.93647607e-03 1.15430159e-02 3.64534836e-03 -2.02745968e-03
      -9.21234838e-04 -3.16035934e-03 -7.48276571e-03 -8.64362158e-03
      -5.34581440e-03 -3.22971353e-03 5.64486161e-03 1.80285354e-03
      -2.93915230e-03 -3.65628232e-03 -2.80917552e-03 -6.83944114e-03
      -1.84658112e-03 -1.44358887e-03 -9.62872946e-05 7.32613914e-03
      -1.21028046e-03 -5.55827795e-03 -3.82373063e-03 -3.40322545e-03
      -1.04011120e-02 -6.79929554e-03 -7.46388629e-04 -7.62760988e-04
      6.35841535e-03 1.92576251e-03 -4.16373555e-03 -1.82659749e-03
      -3.33481003e-03 -1.02450876e-02 -5.08079864e-03 -2.48561031e-03
      -6.75918115e-03 1.04145159e-03 9.56119213e-04 1.99164770e-05
      -1.77602819e-03 -9.93360067e-04 -1.77128590e-03 -9.10598144e-04
      -1.04416325e-03 -3.34083149e-03 9.55723372e-05 4.06290172e-03
      1.95540162e-03 1.46771723e-04 -1.37844356e-03 -4.51469235e-03
      -4.44870116e-03 -9.03180800e-04 4.59462259e-04 -5.36694191e-04
      -1.77724694e-03 -3.43265128e-03 -2.96283141e-03 -4.58028726e-03
      -3.00325756e-03 -4.20938246e-03 -4.60049929e-03 1.27544487e-03
      -1.41610333e-03 -2.65861349e-03 -6.70824153e-03 -5.52405976e-03
      -9.37758852e-03 -7.04717776e-03 -4.47052158e-03 -9.16477409e-04
      -1.90836715e-03 3.84393171e-03 4.15393012e-03 -7.36364920e-04
      -2.70139333e-03 -1.42117424e-04 -5.49344067e-03 -6.36777841e-03
      -2.07360590e-05 -8.30266144e-05 5.80159156e-03 2.73864483e-03
      -3.51568963e-03 -5.18379966e-03 -4.42870148e-03 -1.19039947e-02
      -7.56078120e-03 2.33671023e-03 3.74082872e-03 -1.16136274e-03
      -4.94376407e-04 -6.72917906e-03 -4.95048007e-03 -6.04189048e-03
      -9.24244523e-03 3.24374356e-04 3.01542436e-03 3.06861545e-03
      -1.27063016e-03 -2.30886741e-03 -1.05623398e-02 -4.54695337e-03
      -2.31151772e-03 -7.45086093e-03 -4.17306228e-03 2.54329876e-04
      3.42333643e-03 8.66574049e-03 4.07845853e-03 -1.49294804e-03
      -1.02296297e-03 -4.25884640e-03 -1.31880417e-02 -1.04689952e-02
      -1.93491939e-03 1.31413573e-03 7.88335875e-03 5.40986937e-03
      -5.19341498e-04 1.26416481e-03 -5.45951305e-04 -3.64267849e-03
      -7.99952727e-03 -8.53899959e-03 4.16434882e-03 3.98756005e-03
      -3.94657254e-03 -7.25376373e-03 -2.49702949e-03 -2.72354879e-03
      -6.67353813e-03 -1.17797656e-02 3.28370341e-04 1.07088662e-03
      -4.94867004e-03 -1.61694258e-03 -4.03694995e-03 -9.47486435e-04
      -2.95332400e-03 -6.22381922e-03 -8.37403256e-03 -6.38439669e-04
      1.21355033e-03 7.21544307e-03 6.22234261e-03 -2.47999298e-04
      -3.06907779e-04 7.79106282e-04 -1.65546007e-04 -1.18386624e-02
      -1.56755559e-02 5.74044650e-03 8.00763536e-03 9.41468868e-03
      2.41127168e-03 -4.38607996e-04 -3.06630129e-04 -1.44083693e-03
      -7.37822475e-03 -6.36458956e-03 -5.33466786e-03 -5.73656103e-03
      -2.24314677e-03 -4.74957004e-03 -3.29646893e-04 2.11208779e-03
      -4.52476181e-03 -6.97090942e-03 -3.50346905e-03 3.60206608e-03
      2.95723905e-03 2.45771860e-03 1.46113546e-03 4.18445794e-03
      4.47418261e-03 -3.88491666e-03 -4.99334233e-03 -2.04397878e-03
      1.65902427e-03 8.02250206e-03 9.37708281e-03 -6.93268084e-04
      -9.53663024e-04 -1.12508016e-03 -5.73632168e-03 -5.33115678e-03
      -5.52501762e-03 -4.06694412e-03 1.07904477e-02 7.69226020e-03
      -1.30352890e-03 9.46969958e-04 2.10975297e-03 -1.10766315e-03
      2.67956639e-03 -9.54208616e-03 -3.95910954e-03 6.87855715e-03
      7.09951716e-03 3.60416435e-03 3.20543442e-03 -1.27931684e-03
      3.77839478e-03 -2.36256374e-03 2.41959631e-03 -9.18553770e-03
      3.45787685e-03 2.54952256e-03 -9.51381342e-04 -2.84566567e-03
      -6.27597386e-04 2.69165705e-03 7.99436774e-03 -1.04458781e-03
      -5.77177852e-03 8.60165339e-03 4.35535656e-03 5.02418610e-04
      1.93554931e-03 1.57792016e-03 -8.15058418e-04 -1.07607385e-03
      -1.24493763e-02 -7.26554682e-03 -4.55315749e-04 4.68828017e-04
      9.32456460e-04 1.62180816e-03 -8.02709197e-04 -7.25530670e-04
      2.69324984e-04 -1.17236357e-02 -1.39235975e-02 2.37653940e-03
      5.07015316e-03 -1.82610622e-03 -4.09082742e-03 2.62761163e-03
      1.17930071e-02 9.94240399e-03 -5.30462665e-03 -1.10172844e-02
      2.06846767e-03 4.90758661e-03 4.13815025e-03 8.00906448e-04
      7.62543501e-03 8.82336590e-03 9.20127053e-03 -7.15377461e-03
      -6.66253455e-03 1.51403621e-02 1.24386698e-02 6.40760316e-03
      5.29069267e-03 8.04635789e-03 2.01109960e-03 -4.75709327e-03
      -8.77021719e-03 -6.42287778e-03 2.24865996e-03 1.11391610e-02
      4.80863499e-03 7.21123349e-03 7.35094538e-03 1.28003058e-03
      -7.44644366e-03 -7.67884403e-03 -1.01378737e-02 5.48275141e-03
      9.79983713e-03 6.71013864e-03 7.13227130e-03 8.21365323e-03
      5.09205740e-03 3.43029271e-03 -9.29340813e-03 -1.28260525e-02
      -3.73287708e-03 1.19381417e-02 7.07779592e-03 1.12155778e-02
      7.59762805e-03 2.15312932e-03 -1.37683435e-03 -1.17743015e-02
      -7.05836108e-03 2.52477988e-03 7.26851402e-03 3.09758913e-03
      7.23535009e-03 4.31740051e-03 4.35395306e-03 -1.18301529e-03
      -7.13045895e-03 -8.81950650e-03 3.87601811e-03 5.57499472e-03
      3.75542114e-03 4.58346959e-03 4.57476918e-03 8.12008139e-03
      1.81400252e-03 -6.62425905e-03 -1.10893045e-02 -3.59854050e-04
      7.44843762e-03 5.73134189e-03 1.07513051e-02 7.08540669e-03
      2.80459202e-03 -6.40418322e-04 -1.19929360e-02 -8.89818929e-03
      -8.34746344e-04 1.13072265e-02 6.87785400e-03 8.69883690e-03
      6.87005790e-03 5.77642862e-03 2.85580079e-03 -8.11833981e-03
      -1.06704887e-02 1.66136841e-03 3.80936917e-03 2.49055750e-03
      2.62293243e-03 3.33432877e-03 2.84496648e-03 5.13022952e-03
      -5.94508229e-03 -1.15181860e-02 2.33341148e-03 4.07463592e-03
      2.94918055e-03 2.26866291e-03 1.90707773e-03 3.55584431e-03
      4.64099320e-03 -9.03967861e-03 -7.40124658e-03 -3.40797007e-04
      7.10792700e-03 3.09283915e-03 3.74111417e-03 2.78901076e-03
      3.01889307e-03 3.35207349e-03 -6.98908232e-03 -3.79786128e-03
      -3.92813887e-03 2.94136931e-03 1.52719684e-03 2.21200217e-03
      1.53542508e-03 8.31317529e-03 3.55089374e-04 -2.99238693e-03
      -9.99033824e-03 3.77900596e-03 3.19434819e-03 1.83392141e-03
      6.87112566e-04 1.74510060e-03 3.45330639e-03 3.82349303e-04
      -7.90715218e-03 -5.07505727e-04 9.18760151e-03 4.13080119e-03
      1.11429568e-03 1.95290369e-03 1.58264919e-03 -1.80369243e-03
      -4.43193450e-04 -8.51415005e-03 -5.74465562e-03 -4.84139426e-03
      2.77870428e-03 1.10325124e-03 1.50461472e-03 4.16316697e-03
      6.64840685e-03 3.27155343e-03 -5.80240041e-03 -2.95904675e-03
      -3.43072601e-03 1.82826084e-03 9.29152360e-04 5.80416934e-04
      2.45075626e-03 4.99383095e-05 3.60623910e-03 -7.28677353e-03
      -5.53544657e-03 6.50546048e-03 2.78092059e-03 -1.13290106e-03
      2.46582553e-03 1.18833943e-03 5.92028839e-04 -1.39933801e-03
      -6.28031418e-03 -8.44236277e-03 4.30459157e-03 4.29791369e-04
      -2.90402980e-03 2.34255195e-03 3.97993252e-03 5.00876782e-03
      6.13424054e-04 -5.17006870e-03 -3.82400677e-03 -5.52130071e-03
      -7.24266865e-04 -1.38599728e-03 5.08141820e-04 2.26120139e-03
      6.36103563e-04 4.96822782e-03 -6.88093854e-03 -4.70224489e-03
      6.96156494e-05 -3.71732679e-03 -2.31992849e-03 1.35820708e-03
      8.39631911e-03 9.79086943e-03 9.00963135e-03 -3.95399006e-03
      -7.11318990e-03 1.26730138e-03 -5.65468566e-03 -2.57932511e-03
      -1.57099159e-03 -7.33756984e-04 -1.31194771e-03 -5.36591653e-03
      -8.96090269e-03 -4.54850309e-03 3.82867362e-03 -3.44657106e-03
      1.10129081e-03 5.45112707e-05 -3.29411286e-03 -3.09665315e-03
      -9.18219611e-03 -6.91208383e-03 -3.19954916e-03 1.62419828e-03
      -7.87180662e-03 -1.90584257e-03 -5.04001684e-04 5.74610569e-03
      8.89408588e-03 4.41043917e-03 -5.89439226e-03 -4.47037863e-03
      -3.60326329e-03 -2.46314355e-03 -1.03029970e-03 1.35350332e-03
      3.08491080e-03 4.04306129e-03 2.49333284e-03 3.17562546e-04
      -1.42226880e-03 1.65221875e-03 -3.30815371e-03 2.85267364e-04
      3.68348468e-04 -1.44345302e-03 -6.01067580e-03 -8.40764679e-03
      -2.49251840e-03 3.60045489e-03 3.86140915e-03 -3.28391325e-03
      -7.73597974e-04 9.86286090e-04 -2.52643344e-03 -8.81079771e-03
      -1.25610195e-02 -1.88022770e-03 -4.04318934e-03 -3.28785786e-03
      -3.67447268e-03 -3.06868390e-03 4.89129859e-04 8.50582728e-04
      -8.02671246e-04 1.06121821e-03 -1.62325159e-04 -2.29003001e-03
      -1.41654606e-03 -3.64881451e-03 -4.79409331e-03 -2.82659126e-03
      -5.10434480e-03 -7.68668577e-03 -6.92965882e-03 -2.51500774e-03
      3.87756946e-03 4.10897797e-03 -7.92815117e-04 -8.50182376e-04
      2.33839150e-03 1.64685640e-04 -4.74664290e-03 -1.09196864e-02
      -6.24971814e-04 -2.46584881e-03 -2.64278287e-03 2.37425533e-03
      -4.00367077e-04 -1.46550848e-03 -3.32093122e-03 -9.05439258e-03
      -4.99250414e-03 -1.96755701e-03 -4.04938078e-03 -3.95093253e-03
      -1.65273051e-03 -2.82174628e-03 -3.35626188e-03 -7.55053770e-04
      -5.30086085e-03 -6.27228757e-03 -2.50675972e-03 -3.24030500e-03
      -1.78102020e-03 2.85851047e-03 -2.12555425e-03 -5.68703841e-03
      -3.14507913e-03 -7.96379708e-03 -5.29590808e-03 -3.03024962e-03
      -7.35524984e-04 5.27575519e-03 2.10060133e-03 -6.33434276e-04
      -1.59753626e-03 -7.38735497e-03 -1.35329841e-02 -7.90520571e-03
      -1.48159999e-03 1.47859263e-03 5.26354555e-03 -2.84493854e-03
      -4.30987217e-03 -3.04126064e-03 -1.18247680e-02 -1.55239273e-02
      -1.07282493e-02 1.60259462e-03 1.74963835e-03 9.20115446e-04
      1.04482309e-03 -7.75363669e-03 -7.46113015e-03 -6.73673255e-03
      -1.00286473e-02 -7.31423637e-03 2.19314266e-03 2.21838127e-03
      -3.44505161e-03 -8.64958856e-03 -1.07938163e-02 -8.91460851e-03
      -8.50061513e-03 -8.32435954e-03 -6.66100532e-03 4.02765581e-03
      -9.65465908e-04 4.96589870e-04 -5.22319041e-03 -4.86878119e-03
      -2.64231442e-03 -9.99192055e-03 -9.54382587e-03 -6.80118101e-03
      4.66492679e-03 2.31940043e-03 -2.59084860e-03 -7.50485621e-03
      -4.66646813e-03 -7.11960858e-03 -1.07251182e-02 -7.23145064e-03
      -5.53694461e-03 4.56828624e-03 2.67473771e-03 -6.65701833e-03
      -1.40752494e-02 -6.77962508e-03 -6.80845883e-03 -8.10310151e-03
      -4.05093189e-03 -5.66567061e-03 4.95764194e-03 5.90440771e-03
      -7.71047256e-04 -1.24804759e-02 -6.60887873e-03 -1.03823366e-02
      -1.04106627e-02 -3.94745311e-03 -7.75383692e-03 6.54478511e-03
      1.81442639e-03 -3.78268305e-03 -6.55087130e-03 -4.28665616e-03
      -7.63818901e-03 -5.70305530e-03 -4.69874451e-03 -3.46139283e-03
      3.97363445e-03 4.31445101e-03 -4.35867719e-03 -8.77628662e-03
      -8.75819661e-03 -1.01780109e-02 -8.60683341e-03 -1.07864179e-02
      -2.67691328e-03 5.06005390e-03 1.52379065e-03 -9.53901652e-03
      -1.66377909e-02 -8.98199622e-03 -1.01989824e-02 -8.87389015e-03
      -4.43867920e-03 -2.97546131e-03 4.78443643e-03 4.45939973e-03
      -1.25649711e-02 -1.48443012e-02 -1.06269317e-02 -7.99965020e-03
      -5.16363792e-03 -3.17924819e-03 2.65251519e-03 6.21135207e-03
      8.11758824e-03 -1.48597627e-03 -9.55464412e-03 -1.19345747e-02
      -1.00286417e-02 -1.29558137e-02 -1.30917737e-02 -6.66182488e-03
      9.81263258e-03 5.03536873e-03 -1.94924971e-04 -6.89628813e-03
      -7.43359420e-03 -4.76482976e-03 -1.05803842e-02 -1.06988195e-02
      -3.25354538e-03 6.65805489e-03 5.89108048e-03 -7.37410830e-03
      -1.43212900e-02 -9.91900638e-03 -7.50409905e-03 -5.42985229e-03
      -6.96817692e-03 -3.57208215e-03 9.04494990e-03 3.94352851e-03
      -5.09229302e-03 -1.55565459e-02 -8.01460911e-03 -9.06938687e-03
      -9.95019916e-03 -1.26949325e-02 -4.21098014e-03 7.14486837e-03
      -3.14920908e-03 -3.07727233e-03 -6.94154156e-03 -4.98953275e-03
      -3.79167520e-03 -9.79951397e-03 -9.73811001e-03 1.80724438e-03
      5.94100775e-03 2.28577301e-05 -3.06184054e-03 -1.16688553e-02
      -1.18799964e-02 -6.56552333e-03 -1.55641809e-02 -1.70079749e-02
      1.78016722e-03 8.06514919e-03 -1.01187988e-03 -1.04722502e-02
      -1.65411569e-02 -9.34461877e-03 -5.68976719e-03 -9.77693871e-03
      -8.59795511e-03 2.26658862e-03 1.23177506e-02 8.04877316e-04
      -5.78376977e-03 -1.71401333e-02 -8.09369888e-03 -3.55166220e-03
      -6.19178778e-03 -7.13497587e-03 4.83623100e-03 1.37601616e-02
      5.22767846e-03 -1.20565877e-03 -8.05389415e-03 -7.70271663e-03
      -5.36224619e-03 -1.16891367e-02 -1.77446771e-02 -7.32527208e-03
      5.15950890e-03 4.45005205e-03 2.00452469e-03 -7.84361444e-04
      -7.79536832e-03 -6.36134250e-03 -1.08987968e-02 -1.61912199e-02
      -6.60243351e-03 4.03893786e-03 1.61579181e-03 -6.90756924e-03
      -1.28459707e-02 -7.81783834e-03 -2.30582641e-03 -1.57524156e-03
      -3.61876772e-03 1.55336515e-03 6.60224957e-03 7.20789609e-03
      -5.58051514e-03 -1.50399338e-02 -1.45517876e-02 -6.36257650e-03
      -1.75581139e-03 -7.00988807e-03 6.31029671e-03 7.91488681e-03
      2.76773144e-03 -3.30801471e-03 -5.54477470e-03 -7.70861236e-03
      -8.10944196e-03 -7.60850403e-03 -9.78298485e-03 -2.93397141e-04
      2.13275850e-03 2.24196492e-03 -8.48741550e-03 -8.90256744e-03
      -8.92542955e-03 -1.01483418e-02 -8.76574498e-03 -1.35627110e-02
      -1.54484971e-03 6.04379317e-03 3.50084947e-03 -7.99646322e-03
      -1.92892160e-02 -8.51905346e-03 -6.19073538e-03 -3.65715893e-03
      -3.26468819e-03 1.21391881e-02 9.79186594e-03 -1.72365503e-03
      -6.94735814e-03 -1.45510528e-02 -2.09772517e-03 -2.83508445e-03
      2.43290546e-04 -4.83497046e-03 6.45002443e-03 3.77831096e-03
      5.10580279e-03 -3.84759530e-03 -6.60409639e-03 -7.86268059e-03
      -6.51924266e-03 -8.44501704e-03 -1.59611814e-02 -6.58369763e-03
      3.95769766e-03 4.16030921e-03 -3.43130319e-04 -5.83230844e-03
      -6.29233476e-03 -4.64918697e-03 -9.52118635e-03 -1.61829684e-02
      -1.10661276e-02 -1.73777924e-03 8.24802322e-04 -6.34207390e-03
      -8.88945442e-03 -4.40147333e-03 -1.86695589e-03 -5.20964153e-03
      -7.10223382e-03 2.29642051e-03 5.60212974e-03 -1.69110834e-04
      -9.38552525e-03 -1.21620325e-02 -1.10788560e-02 -8.23207851e-03
      -1.14673972e-02 -5.84461074e-03 2.45302636e-03 7.99904298e-03
      6.90281950e-03 1.41964073e-03 -2.25668936e-03 -4.98673739e-03
      -3.67797143e-03 -7.95545336e-03 -1.02875391e-02 -5.72990114e-03
      4.56841057e-03 6.60907594e-04 1.09107146e-04 -8.14385153e-03
      -4.84447367e-03 -4.78113350e-03 -1.13173109e-02 -1.46995708e-02
      -4.80901543e-03 2.14034994e-03 -3.68435925e-04 -5.28478250e-03
      -1.33049777e-02 -1.21041443e-02 -6.84938114e-03 -4.59425244e-03
      -3.56255099e-04 1.09169111e-02 1.12341102e-02 -1.27431878e-03
      -5.66934794e-03 -1.44777596e-02 -1.25386510e-02 -7.62554538e-03
      -4.93200636e-03 -6.94304099e-03 8.04017764e-03 4.88411868e-03
      2.27193604e-03 4.29289794e-04 -2.62064254e-03 -1.13245554e-03
      -2.38808640e-03 -6.71777362e-03 -1.37879252e-02 -5.66854654e-03
      4.12651384e-03 7.46667711e-03 -8.73030687e-04 1.03757798e-03
      -5.25814993e-03 -5.02631394e-03 -3.49439378e-03 -1.21272355e-02
      1.93773856e-04 3.12267197e-03 3.09764477e-03 -9.51677747e-03
      -9.32086632e-03 -1.52918827e-02 -5.71419997e-03 -6.99460553e-03
      -8.45100544e-03 -9.81048142e-05 3.29208560e-03 2.29367870e-03
      -8.97414144e-03 -9.66072548e-03 -1.42208934e-02 -6.86881645e-03
      -3.49726249e-03 -5.28152985e-03 1.25068077e-03 5.83908614e-03
      4.90578637e-03 4.09266533e-04 9.82524012e-04 -6.33948296e-03
      -5.25890524e-03 -4.39010980e-03 -9.29513760e-03 4.43169009e-03
      9.07461718e-03 -2.66974443e-03 -5.69190504e-03 -1.35846587e-03
      -7.20657315e-03 -1.90336455e-03 -9.15714819e-03 -1.12270340e-02
      2.09928444e-03 7.26093305e-03 6.00497064e-04 -1.22857811e-02
      -1.22966329e-02 -9.63347405e-03 -4.22906969e-03 5.45706367e-04
      -3.71310278e-03 3.81259504e-03 8.30009673e-03 -4.36581718e-03
      -1.31329792e-02 -1.05996607e-02 -8.25949851e-03 -2.82284454e-04
      -3.62045807e-03 -1.02148391e-02 2.79241445e-04 5.08611510e-03
      -5.07341523e-04 2.27832570e-04 1.47361541e-03 -3.22055328e-03
      7.13834306e-05 -6.95168227e-03 -1.12231011e-02 -7.86884979e-04
      1.00327597e-03 -2.35916581e-03 1.68879132e-03 -8.46974901e-04
      -5.14198793e-03 -3.91388312e-03 -8.41765944e-03 -1.25086075e-02
      -4.39499924e-03 -3.02204309e-04 1.61204510e-03 -5.33203082e-03
      -9.72231571e-03 -5.47728175e-03 1.01098209e-03 -1.13311666e-03
      -8.11044872e-03 5.39795787e-04 7.05384417e-03 -6.22226624e-03
      -1.05384253e-02 -8.56289826e-03 -8.82634241e-03 -2.40155612e-03
      9.51635593e-04 -5.04415715e-03 4.80258558e-03 3.01220245e-03
      8.06665106e-04 2.82472582e-03 -6.93789031e-03 -7.75391655e-03
      -5.13135409e-03 -8.31949525e-03 -1.15884691e-02 -4.18106839e-03
      -2.92187091e-04 3.42461490e-03 1.76733139e-03 -6.70000771e-03
      -5.98544348e-03 -2.23875511e-03 -4.17476939e-03 -7.71794980e-03
      -2.66882684e-03 1.42910122e-03 -8.15311680e-04 -5.80171542e-03
      -8.22351873e-03 -8.40687752e-03 -4.25603334e-03 -1.43161873e-04
      -4.76778776e-04 4.74133948e-03 3.48826824e-03 4.90122102e-03
      -1.25990319e-03 -9.47043765e-03 -1.11233145e-02 -6.22663787e-03
      -2.30045943e-03 2.97443173e-03 2.51801597e-04 4.04230971e-03
      5.20745013e-03 1.96645793e-04 -5.84149547e-03 -6.08203327e-03
      -3.10338126e-03 -4.39481577e-03 -4.02461272e-03 -4.02820390e-03
      -1.87016022e-03 5.82673447e-03 2.41698232e-03 -4.03090101e-03
      -7.65992142e-03 -8.05100333e-03 -7.09065981e-03 -5.52621763e-03
      8.27202457e-04 4.24661255e-03 3.62028647e-03 -3.93078430e-03
      -1.11000519e-02 -1.38926841e-02 -6.08789455e-03 -1.00222323e-03
      5.21529466e-03 -2.73014070e-04 2.76133814e-03 1.39935350e-03
      -4.80910437e-03 -1.03944438e-02 -1.18755754e-02 -6.16271142e-03
      1.03928475e-03 2.60174531e-03 -1.87580823e-04 4.81196539e-03
      3.72569123e-03 -4.00250219e-03 -3.18442634e-03 -2.86695315e-03
      -4.90828231e-03 -4.85481834e-03 -5.95566723e-03 2.26010219e-03
      6.20472711e-03 3.27931927e-03 -3.82980774e-03 -6.90873293e-03
      -7.57806934e-03 -3.86454770e-03 -3.37697682e-03 -4.01936052e-03
      2.62633176e-03 4.89276368e-03 -1.42225309e-03 -6.63829595e-03
      -6.30825153e-03 -2.70714378e-03 -5.54638030e-03 -1.88448024e-03
      -9.82048688e-04 -2.18124292e-03 6.43609231e-03 1.52243383e-03
      -1.82697782e-03 -5.86738018e-03 -7.96751957e-03 -8.53258651e-03
      -6.75183255e-03 -4.76213498e-03 -6.54748874e-04 4.18356992e-03
      1.81024219e-03 -3.79903172e-03 -1.13520734e-02 -1.28015988e-02
      -4.02126135e-03 -4.09228634e-03 -1.38167851e-03 2.02468270e-03
      5.52411890e-03 -1.29373220e-03 -1.12801334e-02 -1.05924848e-02
      -1.03231473e-02 -3.53921810e-03 -3.81404627e-03 -3.03192367e-03
      -8.74503865e-04 4.24234662e-03 4.39123111e-03 -7.10617751e-03
      -1.30787678e-02 -1.09021012e-02 -3.97284701e-03 -3.20827216e-03
      -2.35050614e-03 5.33053093e-03 6.92186505e-03 8.18101317e-03
      -5.00063738e-03 -1.14723612e-02 -5.97084267e-03 -2.15567858e-03
      -3.67727829e-03 -3.04935942e-03 1.38605759e-03 6.93619391e-03
      -4.90355911e-03 -9.49494448e-03 -9.01759416e-03 -6.90641627e-03
      -1.02514285e-03 -3.18763312e-03 -1.17142859e-03 -8.62383575e-04
      -3.96972243e-03 2.23489967e-03 -2.23839516e-03 -2.95926095e-03
      -2.70109922e-05 1.19557197e-03 -6.89503679e-04 4.86617954e-03
      8.19137495e-04 7.14249618e-04 4.62088315e-03 -2.61708652e-03
      -6.16393238e-03 -4.10578446e-03 -3.35303135e-03 -3.64195462e-03
      -9.49335343e-04 2.68271076e-04 6.36996701e-03 2.57174927e-03
      1.22278044e-03 -1.08510104e-03 -3.50424461e-03 -3.77144362e-03
      -3.41872405e-03 5.86364884e-03 3.08229099e-03 1.56139501e-03
      -3.72790708e-03 4.43919795e-03 1.23627472e-03 3.57390754e-03
      2.36705644e-03 -3.42928269e-03 4.41452861e-03 2.79069180e-03
      1.41211611e-03 -1.07791480e-02 1.41046720e-03 -5.53501653e-04
      8.25232302e-04 -6.72593189e-04 -4.38044488e-04 4.98691667e-03
      7.43677793e-03 -4.14420618e-03 -2.17615394e-03 1.20335794e-03
      -3.57502280e-03 1.98904169e-03 -1.72150787e-03 -2.07961467e-03
      6.48629910e-04 3.33259464e-03 -1.75773876e-03 -8.63079447e-03
      -7.16093229e-04 -1.46568380e-03 4.53501998e-04 4.36188770e-04
      2.76753609e-03 -3.14628323e-06 1.76160689e-03 -9.72660538e-03
      -1.05068181e-02 -1.31650057e-04 4.52287123e-03 4.38738056e-03
      1.93693629e-03 6.55039027e-03 9.26938560e-03 9.88958590e-03
      -2.50161812e-03 -1.03179356e-02 2.99160439e-03 7.18315877e-03
      6.50072843e-03 5.55567257e-03 1.00258347e-02 9.95954312e-03
      1.10468995e-02 -6.63533388e-03 -1.41331172e-02 -1.90814177e-03
      4.18972410e-03 1.56727538e-03 2.34369258e-03 8.49825796e-03
      -1.23997789e-03 3.51618417e-03 -1.29792290e-02 -1.48346750e-02
      1.58263277e-03 9.03842971e-03 5.49947098e-03 2.26937071e-03
      1.08022159e-02 8.99117813e-03 6.23661373e-03 -1.14732264e-02
      -7.72472657e-03 -1.76426140e-03 6.17069192e-03 2.73613725e-03
      7.81645160e-03 3.03699914e-03 6.90786447e-03 -1.76285463e-03
      -8.21895804e-03 -1.27803702e-02 -1.05517367e-02 5.76695893e-03
      2.89598363e-03 1.29489806e-02 3.88426427e-03 2.66973767e-03
      -3.50476662e-03 -1.29865399e-02 -5.61313611e-03 -7.53249181e-03
      5.81963733e-03 3.33919609e-03 9.10073053e-03 3.94866895e-03
      7.68014370e-03 7.66100269e-03 -4.96492023e-03 -6.98649138e-03
      -1.11973789e-02 4.61554417e-04 3.43980454e-03 1.15398904e-02
      6.46891771e-03 6.80976594e-03 8.96705780e-03 -8.61418806e-03
      -1.22043220e-02 -5.70508093e-03 4.97618550e-03 5.15000476e-03
      8.97993986e-03 2.63781194e-03 1.14699802e-03 -1.67733477e-03
      -1.26277152e-02 -7.99688324e-03 -2.30320450e-03 7.64415460e-03
      5.12339268e-03 7.11159268e-03 2.21512234e-03 1.62821054e-03
      4.43260476e-04 -9.21203103e-03 -6.38572639e-03 -7.19384663e-03
      1.01654581e-03 3.48542957e-03 9.46663227e-03 4.15695086e-03
      4.63337963e-03 6.98953914e-03 -3.95726506e-03 -2.85146153e-03
      -2.67763133e-03 3.58189316e-03 3.17475130e-03 7.39196362e-03
      3.96038522e-04 1.46642164e-03 4.61794902e-03 -3.87144937e-05
      -8.32353625e-03 -3.52632534e-03 4.44372976e-03 -1.33751938e-03
      1.18564733e-03 1.44104497e-03 1.04309095e-03 1.32115674e-03
      -8.20203125e-03 -7.06257066e-03 -8.87210574e-03 5.43629030e-05
      -2.63896422e-04 1.72145898e-04 1.94668246e-03 3.79342330e-03
      2.76647904e-03 -3.89440591e-03 -1.55393023e-03 2.66727014e-03
      3.50785349e-03 -6.46714645e-04 2.00357777e-03 -1.29691290e-03
      -5.56377228e-04 2.63177115e-03 -6.66556321e-03 -7.76496623e-03
      -2.95665325e-03 7.36609846e-03 3.58481077e-03 3.79138207e-03
      4.78967978e-03 3.35076312e-03 4.53713210e-03 8.18396948e-05
      -9.06648580e-03 -6.48382772e-03 2.27738312e-03 1.53262611e-03
      1.51917979e-03 5.78318303e-03 3.96063039e-03 2.52742181e-03
      1.34066865e-03 -9.75376647e-03 -6.72499556e-03 1.69660232e-03
      2.19516107e-03 1.53850287e-03 1.78903877e-03 8.76579434e-05
      1.21393485e-03 -4.06652316e-03 -1.25660822e-02 -6.13639923e-03
      3.77120625e-04 6.55546831e-03 6.06497005e-03 8.06999952e-03
      6.60711899e-03 3.96215217e-03 1.60077203e-03 -1.24425730e-02
      -1.40113328e-02 -3.12986248e-03 3.56869050e-03 5.15717082e-03
      6.56887749e-03 2.99783261e-03 2.45869998e-03 -7.39362615e-04
      -9.45305638e-03 -7.05490541e-03 -2.66267010e-03 -3.56899895e-04
      6.69510744e-04 1.62224460e-03 7.48612918e-04 4.31655766e-03
      1.49555702e-03 -3.89407459e-03 -2.00759340e-03 -4.95713204e-03
      -1.53632578e-03 5.49371587e-04 4.13999707e-03 4.05280199e-03
      6.13448676e-03 3.21034528e-03 -1.02499453e-02 -1.01298047e-02
      -2.60106591e-03 3.45583132e-04 1.69070123e-03 4.33066534e-03
      3.60649847e-03 1.47508772e-03 1.58435793e-03 -3.03385174e-03
      -6.10831520e-03 -5.24647161e-03 -1.50523148e-03 1.60382222e-03
      5.90399792e-03 5.61570330e-03 3.50373262e-03 6.56103948e-03
      -4.98551736e-03 -6.88888272e-03 -2.05889996e-03 2.13470706e-03
      2.21017841e-03 5.42967813e-03 7.58129265e-03 5.15566394e-03
      -7.35873240e-04 -4.03191522e-03 -9.61916894e-03 -5.44153969e-04
      -8.96403624e-04 1.67777517e-03 4.25622985e-03 6.83834311e-03
      3.07088788e-03 2.63745827e-03 -5.88880293e-03 -8.36577639e-03
      -3.86776426e-03 -8.82520690e-04 2.68374244e-03 4.98669408e-03
      5.17540285e-03 2.20114063e-03 -9.87163163e-04 -9.41371545e-03
      -1.46845300e-02 -7.58634927e-03 -2.04750290e-03 3.16262455e-03
      4.39430308e-03 4.98608220e-03 -3.55349388e-04 -3.69629124e-03
      -4.81927395e-03 -4.14540013e-03 -1.31015340e-03 -2.95521645e-03
      1.59820495e-03 3.63508612e-03 4.94685303e-03 4.86741634e-03
      2.93007446e-03 -3.61570669e-03 -6.51559234e-03 -1.17656915e-03
      -2.08310969e-03 9.84841259e-04 -9.07734095e-04 -2.78674706e-04
      2.85920524e-03 3.07185575e-03 -7.96064362e-03 -1.39073804e-02
      -9.04104300e-03 -3.46183148e-03 3.59288207e-03 4.08357754e-03
      7.15352641e-03 3.36616114e-03 -3.21444357e-03 -5.44313481e-03
      -1.60173438e-02 -7.08821788e-03 -4.51121666e-03 2.78281397e-03
      -7.01669080e-04 5.93858352e-03 8.29445850e-03 -3.51392152e-03
      -8.94563086e-03 -1.02092875e-02 -2.21407996e-03 -5.82993962e-04
      1.21995353e-03 -1.26710429e-03 -1.85671879e-03 6.68700377e-04
      1.25619816e-03 -1.49846787e-03 -7.61192990e-03 -9.58469987e-04
      2.44894647e-04 5.35483123e-04 -3.86612315e-04 5.99234132e-04
      1.12394942e-03 2.66177161e-03 -8.09374731e-03 -1.07783359e-02
      -8.38597119e-03 -3.40443640e-03 8.21229944e-04 -2.22782674e-03
      3.54872062e-03 8.39402620e-03 -1.03483093e-03 -1.05283502e-03
      -7.49003049e-03 -6.99135521e-03 8.62609537e-04 1.57454319e-03
      1.03563047e-03 5.46785770e-03 7.99646508e-03 -1.88066065e-03
      1.80232327e-03 -1.09243495e-02 -3.35293193e-03 -2.44656438e-03
      -2.85696448e-03 -8.46317052e-05 7.66508980e-04 -3.16525344e-04
      8.84038210e-03 -1.73052843e-03 -1.49344131e-02 -1.14108939e-02
      -4.56162822e-03 -3.95601522e-03 -6.93115056e-04 -3.97953409e-04
      -1.40263815e-03 2.53649335e-03 2.27753515e-03 -1.23935342e-02
      -1.15190810e-02 -4.45879297e-04 1.33751333e-03 1.38885085e-03
      3.12105287e-03 1.89189753e-03 1.98925519e-03 -1.31439453e-03
      -9.54866782e-03 -5.87495556e-03 5.67925628e-04 1.48687512e-03
      2.28904258e-03 2.55642529e-03 1.08393724e-03 1.19795289e-03
      -3.28185246e-03 -6.73716329e-03 -7.41244154e-03 -3.08272964e-03
      -1.91790401e-03 -1.03898859e-03 1.48797908e-03 1.35822885e-03
      1.89299474e-03 -1.87427993e-03 -8.47703125e-03 -9.05780308e-03
      -3.13914684e-03 -3.59705742e-03 -1.98748033e-03 1.21622824e-03
      1.07226137e-03 2.79856101e-03 -4.56131762e-03 -6.50896505e-03
      -2.74237362e-03 -3.24643101e-03 6.76736119e-04 2.28357106e-03
      5.66949649e-03 8.10238812e-03 -9.96076385e-04 -1.65149022e-03
      -1.04397722e-02 -6.58425875e-03 -4.69002314e-03 -1.20305223e-03
      1.14800280e-03 5.04576229e-03 9.69263539e-03 -3.04622669e-03
      -3.23071540e-03 -1.06090205e-02 -1.08441263e-02 -3.55619937e-03
      -2.40240060e-03 -1.55488355e-03 5.44732902e-04 2.78789550e-03
      5.06069604e-03 -6.56919845e-04 -1.29193459e-02 -9.43142269e-03
      -2.91079376e-03 8.17069595e-05 4.86882695e-04 9.15054989e-04
      3.48059647e-03 5.83862141e-03 1.04126644e-04 -1.09813316e-02
      -5.43704256e-03 -3.91783705e-03 -1.14359858e-03 1.07876642e-03
      4.81692050e-03 7.70884473e-03 -1.49856717e-03 -1.48496672e-03
      -1.42591633e-02 -6.59435801e-03 -7.81841576e-03 -3.58116394e-03
      -1.65299932e-03 5.39358472e-03 6.98139193e-03 3.23440135e-03
      2.81214784e-03 -8.66139214e-03 -1.19874598e-02 -3.03693186e-03
      -5.22589078e-04 5.43492788e-04 -4.66412486e-04 9.64896171e-04
      9.47547797e-03 -1.20418624e-03 -1.15916878e-02 -1.74293537e-02
      -2.85042333e-03 -1.73244148e-03 -8.85087473e-04 5.32332779e-05
      2.87303166e-03 9.65131260e-03 -5.19319088e-04 -1.20464591e-02
      -8.53357278e-03 -7.20131863e-03 -3.44148115e-03 -9.58516961e-04
      2.40665651e-03 4.29779990e-03 6.62011094e-03 -2.83487746e-03
      -1.48128700e-02 -9.31168813e-03 -4.88006603e-03 -2.08194694e-03
      2.83481291e-04 3.00385128e-03 3.79403215e-03 1.75093708e-03
      -5.87992929e-03 -1.18472017e-02 -1.13356831e-02 -3.19266669e-03
      -1.82615058e-03 -2.50983611e-03 4.14775684e-04 5.94874611e-03
      8.81948881e-03 -7.06265913e-03 -1.10915266e-02 -6.68878015e-03
      -9.34686104e-05 2.56094965e-03 2.98544928e-03 2.42773606e-03
      7.37105962e-03 6.86351396e-03 -7.80580938e-03 -1.36354119e-02
      -7.07813213e-03 -3.46074160e-03 -1.34064502e-03 3.85195832e-04
      2.06711912e-03 3.05959489e-03 -1.46047550e-03 -5.58426278e-03
      -9.44676623e-03 -3.74271744e-03 -1.70430122e-03 2.88818590e-03
      5.45805367e-03 7.18481373e-03 4.16251924e-03 -1.80969876e-03
      -3.08963982e-03 -1.11809419e-02 -6.75380789e-03 -2.72236951e-03
      2.04301206e-03 3.65650235e-03 3.90681066e-03 8.43079202e-03
      7.65996054e-03 2.87684053e-03 -1.13796750e-02 -1.39352893e-02
      -1.12353209e-02 -8.22166679e-04 4.42844443e-03 6.32906100e-03
      1.21804746e-02 1.09686954e-02 -8.17781035e-03 -9.26438533e-03
      -7.79089145e-03 -6.26348145e-03 2.62044923e-04 3.83079145e-03
      6.52595423e-03 5.34791406e-03 -2.14451388e-03 -5.05977543e-03
      -9.01648495e-03 -8.15728121e-03 -8.67942907e-03 4.66290920e-04
      4.23728954e-03 7.92255811e-03 7.63666257e-03 -1.94286846e-03
      1.92555168e-03 -1.55578665e-02 -1.28182489e-02 -9.95772891e-04
      -4.86750534e-04 2.32830737e-03 6.25097845e-03 1.54099176e-02
      1.37066152e-02 -5.36315702e-03 -1.55308060e-02 -1.06856572e-02
      -6.30008406e-04 -1.15197974e-04 -5.83968009e-04 2.82395718e-04
      9.13741812e-03 6.53627096e-03 -5.18749142e-03 -1.27019184e-02
      -1.16984928e-02 -3.90013237e-03 3.04054236e-03 2.64782785e-03
      6.49159495e-03 9.95219592e-03 9.37793404e-04 -1.21529438e-02
      -1.84148289e-02 -1.49994995e-02 -7.69199012e-03 1.89344876e-03
      -1.71778887e-03 6.70447072e-04 7.49055250e-03 2.98461830e-03
      -2.22221017e-03 -1.11452490e-02 -4.80022188e-03 -1.34392793e-03
      3.18421586e-03 5.64657908e-04 6.93141832e-04 8.11540894e-03
      1.18491473e-02 -1.69145840e-03 -1.08507490e-02 -1.20454067e-02
      -7.93032441e-03 -2.73027574e-04 -5.86248701e-04 3.60068073e-03
      9.84579138e-03 1.35037135e-02 -1.00226421e-02 -1.68038625e-02
      -9.86734033e-03 -6.49592699e-03 2.75566732e-03 2.35154919e-04
      2.19464791e-03 9.36678331e-03 2.35086191e-03 -1.00560877e-02
      -1.58503000e-02 -1.46939531e-02 -6.00796891e-03 1.68508486e-05
      7.25484395e-04 3.76349408e-03 8.57112557e-03 -9.31243238e-04
      -3.69474129e-03 -1.23283369e-02 -1.42275980e-02 -7.64595019e-03
      -2.26694089e-03 7.90085120e-04 3.79734510e-03 1.49586601e-02
      1.64917186e-02 -5.37029421e-03 -1.23804044e-02 -1.07123004e-02
      -9.77459364e-03 -4.37011430e-03 7.42067932e-05 2.56468914e-03
      1.70010589e-02 1.54877501e-02 -8.67407210e-03 -1.60863567e-02
      -1.74620952e-02 -5.32368803e-03 -1.86000345e-03 2.02961126e-03
      4.41917451e-03 1.15415240e-02 9.13868775e-04 -8.01082235e-03
      -1.71017796e-02 -1.42720435e-02 -4.18297714e-03 6.90566783e-04
      2.15753634e-03 4.52460395e-03 1.67145431e-02 7.02235429e-03
      -3.67244077e-03 -1.28631694e-02 -1.40376920e-02 -1.42646553e-02
      -5.13442792e-03 -3.24110361e-03 -6.43694002e-05 1.30500402e-02
      1.19148791e-02 -3.99666606e-03 -1.16724856e-02 -1.36758005e-02
      -1.24233309e-02 -3.17612267e-03 9.42923420e-04 4.04393068e-03
      1.14830276e-02 9.75872856e-03 -7.39322696e-03 -1.53645696e-02
      -1.50202420e-02 -3.96758923e-03 1.44190667e-03 -2.91429897e-04
      1.46630686e-03 1.33850062e-02 4.83182026e-03 -4.83284285e-03
      -1.00708837e-02 -1.38574643e-02 4.13313188e-04 2.42669787e-03
      4.73396946e-03 6.23265840e-03 8.99370201e-03 1.95775111e-03
      -3.89572536e-03 -1.42775113e-02 -1.32530481e-02 -5.11346478e-03
      -3.26423324e-03 2.63482961e-03 4.50145965e-03 8.54378566e-03
      8.41444451e-03 -4.59728157e-03 -1.38932671e-02 -1.36300009e-02
      -6.99179200e-03 -1.88393251e-03 1.68343121e-03 -1.95613503e-03
      3.62019590e-03 7.45760417e-03 -3.18806898e-03 -1.22000836e-02
      -7.31347362e-03 1.66771957e-03 -9.68103472e-04 5.31664537e-03
      9.02620424e-03 7.01505179e-03 2.67339079e-03 -9.06494504e-04
      -8.79085902e-03 -1.00440290e-02 -3.60840419e-03 2.11474653e-05
      4.84370394e-03 4.79310285e-03 6.86709862e-03 6.44194568e-03
      -6.60687173e-03 -1.36997784e-02 -1.64130945e-02 -7.87389372e-03
      -9.35344287e-05 3.46351205e-03 8.45759001e-04 6.46069460e-03
      6.54212944e-03 -1.03290183e-02 -1.25806974e-02 -1.06571009e-02
      -5.03395032e-03 1.42724649e-03 7.26340199e-03 7.12765008e-03
      5.84967528e-03 2.22108723e-03 -6.12654258e-03 -7.02081760e-03
      -5.55003108e-03 -4.50641615e-03 9.96433897e-04 4.98068100e-03
      7.06557138e-03 6.57053292e-03 5.77871630e-04 -6.97719771e-03
      -6.02294598e-03 2.66977027e-03 1.15387200e-04 1.75023475e-03
      4.31281095e-03 7.46743241e-03 3.80802597e-03 -6.45998726e-03
      -1.05943540e-02 -1.15563143e-02 -4.08158451e-03 -3.77731654e-03
      1.18669518e-03 4.90777520e-03 7.61489058e-03 4.74666618e-03
      3.81719950e-03 -4.51075099e-03 -6.52725855e-03 -7.95221236e-03
      -9.73033160e-03 -5.12112631e-03 7.14951311e-04 6.79637725e-03
      2.46447744e-03 3.47146159e-03 -9.08741076e-03 -4.83542308e-03
      3.67645826e-03 8.85211513e-04 3.14346422e-03 3.53878038e-03
      7.90077541e-03 3.33288615e-03 -7.07438262e-03 -7.88064580e-03
      -4.14621690e-03 -3.23063252e-03 -7.26358453e-03 9.84166865e-04
      1.23680598e-04 6.31778920e-03 5.72273694e-03 -4.31649201e-03
      2.29251664e-03 -4.62619495e-03 -1.05219521e-02 -8.67859647e-03
      -1.35211973e-03 1.84430846e-03 3.56423156e-03 -1.42072781e-03
      3.98824411e-03 1.85012294e-03 -6.60264026e-03 -1.27333626e-02
      -6.79148966e-03 2.39467219e-04 3.80896870e-03 1.76101702e-03
      -2.30068038e-03 1.34184142e-03 -6.16016937e-03 -5.52119967e-03
      -6.05701935e-03 -4.38966043e-03 4.74965083e-04 8.54461861e-04
      5.21632901e-04 1.93068129e-03 -1.70380459e-03 -3.95659823e-03
      -5.00609772e-03 -4.34212619e-03 1.47243508e-03 3.95181496e-03
      3.99611518e-03 2.71679787e-03 -5.74226957e-04 -2.36607343e-03
      -4.91749553e-04 -1.12114530e-02 -1.21355578e-02 -4.77545243e-03
      -3.02051404e-03 1.73314300e-03 2.00332841e-03 -2.21132301e-03
      4.08811308e-03 2.65354710e-03 -8.65928084e-03 -1.07985949e-02
      -8.25920049e-03 -3.70064378e-03 -4.98522539e-04 2.61919620e-03
      1.73083448e-03 2.53589242e-03 -2.39656423e-04 -5.77734504e-03
      -8.03834107e-03 -9.60866455e-05 5.55954408e-03 2.41649919e-03
      4.30720113e-03 2.55244807e-03 -8.30244913e-04 4.07108013e-03
      -4.50213253e-03 -4.12797835e-03 -2.85000424e-03 2.68308003e-03
      2.98287091e-03 6.52590534e-03 9.70700383e-03 5.68889920e-03
      2.12700525e-03 -7.01959105e-03 -1.04709808e-02 -7.45657226e-03
      -1.34145143e-04 1.85267359e-03 2.57763750e-04 2.71793292e-03
      3.82732623e-03 -7.43856726e-05 -1.10892244e-02 -1.23502500e-02
      -7.46869948e-03 -3.18952976e-03 2.87226256e-04 3.45541834e-04
      4.88706282e-04 6.20959559e-04 -2.55481596e-03 -9.29921027e-03
      -5.45683724e-04 -1.15366769e-03 4.08171909e-03 6.65531401e-03
      6.39180187e-03 5.36997337e-03 5.60371811e-03 -3.16113606e-03
      -5.38518419e-03 -2.31411797e-03 -1.49303069e-03 1.98052241e-03
      7.67378742e-03 8.86264816e-03 6.24585431e-03 4.49798536e-03
      8.34161183e-04 -9.59624443e-03 -3.62983253e-03 -4.16606246e-03
      -5.47018554e-03 -3.69138410e-03 1.86316983e-03 4.03569406e-03
      -2.59924307e-03 -3.95579991e-04 -6.37667859e-03 -3.53718339e-03
      -3.71243525e-03 -2.32910644e-03 -6.62940613e-04 6.98642805e-03
      7.58334529e-03 -1.35006593e-03 -1.21466431e-03 -3.67133273e-03
      -2.30871444e-03 1.76694710e-03 6.23169297e-04 3.17232613e-03
      5.47840586e-03 6.47792825e-03 2.32288032e-03 8.42620037e-04
      -6.39601960e-04 1.51429290e-03 1.88506744e-03 9.04763176e-04
      -7.38190603e-04 5.02355443e-03 1.13464948e-02 2.67499872e-03
      -3.60616227e-03 -7.38949422e-03 -9.00927279e-03 -6.51111314e-03
      -2.99730850e-03 -1.97168509e-03 1.99761707e-03 -3.36037786e-03
      -9.14658140e-03 -1.41312470e-04 -2.93470314e-03 -3.23176431e-03
      -5.68090333e-03 -2.82322336e-03 1.22945674e-03 -6.74978248e-04
      -6.28104294e-03 -4.96016443e-03 1.36969774e-03 1.87133404e-03
      -4.04810300e-03 -2.15440802e-03 -1.23072503e-04 -2.06597615e-03
      3.71572794e-03 5.66792116e-03 -2.15958827e-03 3.18126660e-03
      5.87708363e-03 9.35364165e-04 9.76147654e-04 -1.57289498e-03
      2.94010132e-03 6.48127636e-03 6.66758232e-03 1.75000925e-04
      -6.67670742e-03 -4.59847832e-03 6.59860263e-04 -4.01272718e-03
      -4.52240417e-03 3.55561450e-03 -5.88246621e-04 -3.38366791e-03
      -1.16891405e-02 -6.45321701e-03 -2.62258574e-03 2.16142344e-03
      -1.89579104e-03 5.74318517e-04 3.86299635e-03 4.73949453e-03
      1.94120780e-03 -1.25780562e-02 -1.48633006e-03 5.20706782e-03
      4.22986876e-03 3.24942451e-03 -7.27902923e-04 4.73667029e-03
      5.68958884e-03 7.11245975e-03 -3.95412557e-03 -2.00408860e-03
      1.02704950e-02 7.72578316e-03 3.70606710e-03 4.44595423e-03
      3.14356713e-03 6.34240033e-03 6.21589134e-03 -2.64001288e-03
      -5.06479805e-03 -8.12699366e-03 7.60988053e-03 5.16922446e-03
      6.45871554e-03 4.49844589e-03 5.61024481e-03 9.46310163e-03
      1.65092119e-03 -4.04024404e-03 -1.06597235e-02 9.01610183e-04
      3.48223606e-03 9.13700648e-03 6.59292750e-03 6.16233796e-03
      1.06328046e-02 3.08260904e-04 -6.98001683e-03 -1.75665263e-02
      1.33013935e-03 -5.81934524e-04 9.69348184e-04 1.95797323e-03
      -4.62005031e-04 2.64009088e-03 6.03389787e-03 -7.95192178e-03
      -1.53218545e-02 -3.05258785e-03 4.77603666e-04 2.24594562e-03
      4.07089799e-04 5.79577871e-03 5.06882230e-03 1.31265039e-03
      -5.44056110e-03 -9.27820895e-03 9.22623323e-04 5.16720209e-03
      9.72596742e-03 3.51465703e-03 5.33632003e-03 1.09150363e-02
      4.49744985e-03 -2.41368567e-03 -5.33158798e-03 -3.79145204e-04
      7.69475009e-03 7.43331155e-03 2.28761579e-03 3.89741384e-03
      8.43528658e-03 6.26639975e-03 -6.06658449e-03 -1.39504336e-02
      -2.76328856e-03 5.16062276e-03 6.85177324e-03 -4.16760682e-04
      1.91128952e-03 3.56593798e-03 3.19816219e-03 -6.01274194e-03
      -1.23446733e-02 -2.30184407e-03 5.83205838e-03 7.71302497e-03
      -8.33241793e-04 7.87953322e-04 8.21405090e-03 4.39952407e-03
      -4.68511367e-03 -2.44584889e-03 -1.23195234e-03 4.04621381e-03
      2.44192034e-03 -4.75008273e-04 -1.34242850e-03 2.63678026e-03
      -2.96896929e-03 -7.41160149e-03 -6.37106923e-03 5.05250925e-03
      8.52093566e-03 7.26580340e-03 6.49882574e-03 2.71214498e-03
      4.87148156e-03 1.23831537e-03 -9.97184496e-03 -1.03408266e-02
      -1.93468085e-03 1.37900977e-04 4.52201441e-03 9.81398160e-04
      -3.22133140e-03 5.67283621e-03 3.07886326e-03 -8.99571087e-03
      -5.05566411e-03 -1.97100756e-03 6.63035270e-03 1.08723249e-02
      6.49580639e-03 3.11338226e-03 9.63439979e-03 4.92430152e-03
      -1.34433853e-02 -1.18756089e-02 -4.63749166e-04 9.42948461e-03
      8.20166618e-03 9.81999561e-03 6.35445444e-03 6.57123653e-03
      5.94724552e-04 -1.20421639e-02 -1.43602267e-02 -8.11591372e-03
      3.36754485e-03 4.79225442e-03 4.09976486e-03 6.32627355e-03
      5.36875287e-03 5.55616687e-04 -8.22021253e-03 -6.97237905e-03
      -3.92689183e-03 6.09170925e-03 8.50878283e-03 6.06155302e-03
      6.56899856e-03 1.12848962e-02 3.31510324e-03 -7.35634658e-03
      -5.48356911e-03 -4.04049363e-03 1.10210571e-03 5.09098824e-03
      4.13602358e-03 7.88834598e-03 1.18659139e-02 5.55010233e-03
      -9.82926227e-03 -1.37232328e-02 -2.64633587e-03 3.42660444e-03
      3.75819649e-03 4.72065248e-03 7.48075265e-03 8.02387111e-03
      4.60204290e-04 -5.57107152e-03 -1.11185042e-02 -8.65054317e-03
      3.53610230e-04 -4.73566579e-05 6.17989711e-03 6.29433664e-03
      8.91924091e-03 7.03425671e-04 -4.44393326e-03 -5.31450100e-03
      -4.46042186e-03 1.63815438e-03 4.13929671e-03 7.12444587e-03
      1.18399747e-02 1.36887748e-02 3.02449241e-03 -5.21326391e-03
      -7.43918633e-03 -6.36305334e-03 2.69255112e-03 2.00140756e-03
      9.07038897e-03 1.28820390e-02 1.64130349e-02 1.81644270e-03
      -5.70093794e-03 -9.75613762e-03 -8.71954951e-03 -2.93710618e-03
      -4.32602646e-05 6.32008584e-03 9.37307812e-03 9.42111947e-03
      1.29097363e-03 -7.28143193e-03 -1.41518554e-02 -1.17185116e-02
      -2.95690075e-03 3.65270651e-03 5.36556263e-03 9.81016830e-03
      7.15691876e-03 -1.21653941e-03 -3.78614874e-03 -6.03877474e-03
      -5.97358588e-03 4.60987398e-03 4.29301988e-03 7.57386861e-03
      1.34904291e-02 1.74705740e-02 4.86056181e-03 -3.85550153e-03
      -1.97763485e-03 -4.66901250e-03 3.22145596e-03 7.31803430e-03
      4.97451890e-03 1.34028876e-02 1.72699839e-02 2.25801463e-03
      -9.32706054e-03 -1.59817357e-02 -7.98896886e-03 -1.11470779e-03
      6.30364567e-03 3.39985872e-03 7.37485336e-03 2.35046213e-03
      -1.86127098e-03 -5.72547549e-03 -1.74804702e-02 -6.73113856e-03
      -3.37935111e-04 5.51242474e-03 2.32713367e-03 8.24509934e-03
      8.01926758e-03 1.52098271e-03 -1.55501661e-03 -4.27075615e-03
      -2.98021734e-03 3.57903983e-03 8.97316355e-03 3.74147482e-03
      1.11248316e-02 1.50200604e-02 3.01126228e-03 2.13371497e-03
      -4.13523009e-03 1.40933553e-04 5.65505261e-03 9.02754720e-03
      7.13526877e-03 1.03108026e-02 1.44282663e-02 9.15234070e-03
      -1.02713453e-02 -1.20705580e-02 -5.11968555e-03 2.05811881e-03
      3.51687428e-03 1.60182966e-03 5.09795127e-03 1.11330589e-02
      -8.09854828e-04 -1.00438623e-02 -1.03773791e-02 -5.92481671e-03
      4.30275779e-03 4.97901253e-03 3.73648806e-03 6.77363342e-03
      8.87432508e-03 -4.39685211e-03 3.03623802e-03 -3.99716059e-03
      -1.96525850e-03 4.19378700e-03 7.56534841e-03 7.05831638e-03
      5.53559233e-03 1.18209925e-02 6.18380867e-03 -2.99205515e-03
      -4.56174649e-03 -2.25449586e-03 4.97041550e-03 8.60739406e-03
      8.93813372e-03 1.08245844e-02 1.36004686e-02 3.97788733e-03
      -9.11750458e-03 -1.07310638e-02 -6.13018358e-03 3.56395612e-03
      4.95768525e-03 2.51559401e-03 4.22648061e-03 5.63494675e-03
      -7.10230414e-03 -6.79450668e-03 -7.34065566e-03 -2.23114667e-03
      5.61905326e-03 8.08601081e-03 5.21722110e-03 2.79285456e-03
      5.00968471e-03 -2.38907454e-03 -2.79986206e-03 -2.54116557e-03
      -4.06571105e-03 3.25054978e-03 4.84237541e-03 4.21422394e-03
      8.05063173e-03 9.86389071e-03 -1.67303882e-03 -3.20094405e-04
      2.27419566e-03 -1.29239040e-03 2.59920163e-03 4.93196398e-03
      4.40095691e-03 7.13014882e-03 9.15521570e-03 1.62652880e-03
      -1.04424451e-02 -7.68466201e-03 -1.68166519e-03 3.32760368e-03
      5.66750392e-03 4.63094097e-03 3.66326771e-03 4.63337079e-03
      -5.20572485e-03 -7.76929921e-03 -9.28638782e-03 -3.03753582e-03
      1.71012420e-03 4.55856230e-03 2.76078447e-03 3.11099226e-03
      8.58700648e-03 -8.25143233e-03 -2.12528557e-03 -2.54231622e-03
      -2.27425387e-03 6.31618488e-04 3.81914177e-03 4.25474206e-03
      7.92723894e-03 7.50403479e-03 4.96068271e-03 1.34255548e-04
      6.39459025e-03 3.69733688e-03 2.73108226e-03 4.65948600e-03
      4.75472212e-03 5.93553390e-03 8.58889427e-03 4.90800571e-03
      -6.88013202e-03 -7.37716909e-03 -2.92924442e-03 1.81823212e-03
      2.49320990e-03 2.00931076e-03 4.99185687e-03 8.83563794e-03
      -8.59786198e-03 -3.69929825e-03 -1.30462460e-02 -5.17172879e-03
      -2.40338524e-03 -4.42276010e-04 -8.70126751e-05 8.45069811e-03
      8.91035516e-03 -4.49339906e-03 5.22188377e-04 8.12934898e-03
      3.43351881e-03 3.61751881e-03 4.98734461e-03 3.60432873e-03
      4.29752842e-03 7.77611276e-03 2.59954273e-03 -3.38111585e-03
      7.67497186e-05 2.01099971e-03 5.02138690e-04 2.90502235e-03
      -1.62349688e-03 5.04643982e-03 7.90117215e-03 1.57648057e-03
      -2.50942307e-03 -1.25582935e-02 -3.01793125e-03 2.72221689e-04
      4.34681773e-04 1.75932085e-03 7.71077303e-03 7.50727113e-03
      3.58272623e-03 -4.34487406e-03 -1.37428734e-02 -8.50205601e-04
      -1.47547596e-03 1.37993158e-03 4.33174241e-03 8.43290705e-03
      5.06713800e-03 -2.81059416e-04 -4.60313400e-03 -8.21767095e-03
      -8.94807104e-04 5.21233305e-04 3.52881802e-03 8.00152247e-06
      5.58935292e-03 7.87789188e-03 5.39549347e-03 -5.94214583e-03
      -1.10376915e-02 -6.98522246e-03 -3.15142982e-03 3.19686788e-03
      3.20318667e-03 6.81650033e-03 7.09615787e-03 1.44125172e-03
      -2.92900880e-03 -1.38351452e-02 -1.42042787e-04 1.18511484e-03
      2.48023588e-03 4.89161722e-03 4.91525931e-03 6.18272461e-03
      3.12697049e-03 -2.05926923e-03 -1.03090564e-02 5.21532376e-04
      3.12068802e-03 2.27945135e-03 4.81238775e-03 5.27634053e-03
      7.06082722e-03 6.02327334e-03 -4.71459096e-03 -9.89340618e-03
      -1.04549108e-02 -1.23127177e-03 4.64282418e-03 4.31831414e-03
      5.20124426e-03 5.05867181e-03 9.12856683e-03 -4.47581848e-03
      -5.54745086e-03 -3.03472648e-03 1.06599345e-03 5.50836744e-03
      4.86379024e-03 5.59616415e-03 8.83746799e-03 1.54315140e-02
      -6.74099987e-03 -6.89285854e-03 -1.18046242e-03 1.36441423e-03
      4.18427726e-03 7.98025448e-03 1.01014571e-02 8.08782969e-03
      2.86533637e-03 -7.59577705e-03 -5.72008779e-03 8.75886588e-04
      2.23638513e-03 7.03529269e-03 7.98233692e-03 9.41268168e-03
      4.92679235e-03 -1.83676966e-04 -6.24520471e-03 -3.65272397e-03
      -3.59462015e-03 -1.59292249e-03 4.19785641e-03 3.85147240e-03
      4.87766135e-03 7.65397865e-03 1.00971982e-02 -9.51108057e-03
      -5.68439392e-03 -6.37016399e-03 1.28357566e-03 5.98404743e-03
      3.36419325e-03 6.70420798e-03 4.38814983e-03 1.74977258e-03
      -9.83962975e-03 -9.09121521e-03 -3.32948333e-03 6.09245617e-03
      7.32036401e-03 5.00439806e-03 8.90193228e-03 1.02088796e-02
      4.08317242e-03 -7.42418412e-03 -9.05558839e-03 -9.23235714e-03
      3.62618337e-03 7.70256063e-03 5.27599780e-03 9.86337196e-03
      1.28619270e-02 5.03588887e-03 -1.15020666e-02 -7.67823076e-03
      -6.08622050e-03 5.40084532e-03 7.10216351e-03 3.68472375e-03
      9.67684668e-03 7.20042549e-03 -1.10307487e-03 -8.65814369e-03
      -6.67375280e-03 -6.66245259e-03 5.52775431e-03 6.37027528e-03
      6.83052465e-03 1.56371258e-02 1.39701236e-02 6.61301368e-04
      -7.07148155e-03 -1.14655569e-02 -7.79049657e-03 3.13651888e-03
      6.21059770e-03 4.53171739e-03 8.07553809e-03 1.31150428e-02
      4.20561340e-03 -9.26200859e-03 -1.22917490e-02 -1.29127884e-02
      3.53585783e-04 1.95764913e-03 4.56525013e-03 7.65710510e-03
      1.21835135e-02 -2.58313399e-03 -4.69746394e-03 -7.36357644e-03
      -7.58325821e-03 3.95014184e-03 4.76546353e-03 5.43132238e-03
      1.32168047e-02 1.10295406e-02 2.02937610e-03 -2.28411914e-03
      -5.09836525e-03 -9.43352468e-03 8.17568158e-04 2.67562666e-03
      8.08547251e-03 1.14072235e-02 1.10654682e-02 7.19770789e-03
      -1.10067269e-02 -1.43930772e-02 -1.48787759e-02 -2.31326185e-03
      -1.55804306e-03 2.90510315e-03 5.44726430e-03 1.03053758e-02
      -3.00038839e-03 -9.03427508e-03 -1.14866383e-02 -1.23799266e-02
      2.60666851e-03 3.82846408e-03 3.51055968e-03 8.26545991e-03
      1.35015408e-02 1.95834809e-03 -2.18973961e-03 -7.15108356e-03
      -1.17741199e-02 -5.61465160e-04 1.01750740e-03 6.02593692e-03
      8.07133876e-03 9.34339780e-03 8.57057609e-03 3.46716115e-05
      6.92041300e-04 -3.26240726e-04 5.85061032e-03 5.83777856e-03
      5.29395137e-03 8.94308556e-03 1.14167761e-02 8.94087926e-03
      -1.64301321e-02 -1.52581427e-02 -1.59985609e-02 -2.10212078e-03
      1.69841188e-03 2.54985469e-04 2.64576124e-03 7.88792595e-03
      -6.71627047e-03 -1.07756713e-02 -8.74804240e-03 -1.00684492e-02
      3.75347119e-03 3.47005436e-03 5.80284745e-03 5.77517925e-03
      5.68172056e-03 -7.06312573e-03 -6.06607820e-04 -6.89595588e-04
      -1.11758895e-03 2.49993638e-03 2.24378612e-03 2.09367462e-03
      3.81247140e-03 5.14954375e-03 2.97484989e-03 8.11088644e-03
      1.04853669e-02 7.80740241e-03 6.90992456e-03 4.42110607e-03
      4.96804202e-03 6.61183475e-03 9.26343538e-03 4.84541524e-03
      -1.25265205e-02 -1.28068756e-02 -6.70389971e-03 3.29393824e-03
      -8.98855040e-04 1.92174071e-03 6.04324322e-03 1.54390524e-03
      -1.26164258e-02 -1.13578755e-02 -8.57447926e-03 -4.24078852e-03
      6.47330016e-04 -3.11482348e-04 -2.77750869e-03 -1.72382093e-03
      -4.66785394e-03 -1.13212671e-02 4.32774983e-03 9.85775702e-03
      6.57599512e-03 2.95099407e-03 1.14436448e-03 3.05218226e-03
      6.71364833e-03 7.55751412e-03 -1.67529506e-03 2.49423040e-03
      1.07780155e-02 2.60025985e-03 1.83002022e-03 -1.39688863e-03
      1.19336136e-03 1.97148742e-03 5.52979764e-03 -2.95189023e-03
      -8.13972577e-03 -3.42373899e-03 2.17077279e-04 -1.66067295e-03
      -2.45126546e-03 -2.29321769e-03 -6.68834255e-04 -4.22089361e-03
      -1.06600942e-02 -1.12922098e-02 -1.12213800e-02 4.48650308e-03
      -1.77133165e-03 -1.21761987e-03 1.59528037e-03 3.08159040e-03
      -2.35303678e-03 -1.31620672e-02 -3.29650706e-04 1.07129626e-02
      1.03153242e-03 -7.02855177e-04 -2.15573865e-03 1.59016380e-03
      3.58214462e-03 3.15481564e-03 -4.32978908e-04 -2.74423533e-03
      6.93910336e-03 1.52538018e-03 5.03916119e-04 1.24383485e-04
      4.55740839e-03 8.28847289e-03 8.03480204e-03 1.31404737e-03
      -1.42700132e-02 -9.72926803e-03 3.69971176e-03 1.49867940e-03
      2.81053921e-03 1.89401372e-03 6.25434378e-03 4.13808564e-04
      -1.25851352e-02 -1.52382357e-02 -1.15872361e-02 -3.69801954e-03
      -2.91578448e-03 -4.46967373e-04 -2.75292224e-03 4.54182411e-03
      1.05857593e-03 -1.02023408e-02 -2.43767491e-03 6.64545503e-03
      5.52234286e-03 2.41351104e-03 3.41115985e-03 5.12147928e-03
      8.99707619e-03 8.99744034e-03 2.45993841e-03 -3.52893397e-03
      7.80896656e-03 1.16612222e-02 4.71650017e-03 -1.95419323e-03
      1.22717407e-04 6.65045762e-03 1.00108339e-02 -1.77409721e-03
      -1.56779643e-02 -1.32486010e-02 -9.18223150e-03 -8.09511729e-03
      -3.77903273e-03 -4.15180111e-03 -1.36331306e-03 -1.50909636e-03
      -9.82942805e-03 -1.16194934e-02 -1.09324576e-02 -3.74280429e-03
      -3.93400621e-03 -1.01000292e-03 8.86423950e-05 -5.52705489e-04
      -4.98979772e-03 -1.19543821e-02 -3.28666624e-03 2.65795947e-03
      9.36285220e-03 -1.77477177e-05 -3.55245941e-03 -1.60538545e-03
      5.11750579e-03 7.40658306e-03 2.85770465e-03 4.71745199e-03
      6.71394728e-03 9.72891226e-03 1.03623269e-03 -1.92271860e-03
      8.40622291e-04 2.35430431e-03 3.89062241e-03 2.14278162e-03
      -8.85311421e-03 -6.46728650e-03 -5.21560479e-03 -5.92336152e-03
      -1.14356086e-03 -3.83160543e-03 1.31726847e-03 -7.16310460e-03
      -1.32511482e-02 -5.82006341e-03 -5.25640743e-03 -2.71955295e-03
      -4.56302380e-03 -1.45473378e-03 -3.45891714e-03 -3.31644842e-04
      -7.04351394e-03 -6.86514284e-03 5.36340568e-03 1.23656858e-02
      9.47460812e-03 -9.57229466e-04 -2.17208685e-03 -1.15704676e-03
      1.40793982e-03 -2.39790068e-03 -4.91322251e-03 2.70969723e-03
      1.11691933e-02 6.08900469e-03 -1.39539770e-03 -9.61197948e-05
      -1.41959579e-03 4.35374957e-03 1.01052877e-03 -5.45757124e-04
      -1.03484672e-02 -9.62709635e-03 2.43297755e-03 -2.29085982e-03
      3.70341033e-04 1.95918954e-03 -1.33280724e-03 -2.91347713e-03
      -7.54306745e-03 -1.47391707e-02 -9.88715794e-03 -8.21603870e-04
      -3.58167617e-03 -5.99414285e-04 4.71625337e-03 4.11800388e-03
      1.54902856e-03 -2.68580485e-03 -1.86127855e-03 7.88414851e-03
      8.96093622e-03 -1.51494786e-03 -2.72379490e-03 -2.97835865e-03
      -8.42601235e-04 2.20451923e-03 -4.31232300e-04 6.70265220e-03
      6.18501101e-03 1.13857370e-02 -1.64704083e-03 -8.29005800e-03
      -7.04448961e-04 2.07951828e-03 5.50356740e-03 3.00504523e-03
      -8.62553623e-03 -7.33971177e-03 -9.90523398e-03 -8.22140183e-03
      -2.62209401e-03 1.53421960e-03 5.82077634e-03 7.52235937e-04
      -4.59693465e-03 -2.74884957e-03 -8.28947686e-03 -5.29266242e-03
      -3.70449456e-03 -1.67448493e-03 -5.24618663e-03 3.95595655e-03
      1.84919965e-03 -8.89019854e-03 1.09320395e-02 7.20712310e-03
      6.43824134e-03 -7.08022527e-03 -1.09580848e-02 -1.20093569e-03
      4.40614717e-03 4.38619033e-03 2.45830975e-03 1.24986714e-03
      4.07287665e-03 4.77772532e-03 -2.83414335e-03 -9.85816773e-03
      -1.84183172e-03 1.84051949e-03 4.53394651e-03 -1.00373733e-03
      -5.85446088e-03 -4.83306963e-03 -8.41163564e-03 -2.02059303e-03
      -4.97606490e-03 -4.01251251e-03 1.54892646e-03 2.21683178e-03
      -1.20538715e-02 -3.22937919e-03 1.79164030e-03 -4.35224501e-03
      -1.20832154e-03 -3.66634387e-03 3.19507351e-04 5.94251184e-03
      5.58673358e-03 -5.11024427e-03 -2.16419226e-03 5.00967726e-03
      7.38144154e-04 9.76081938e-04 -6.37004385e-03 -1.98693480e-03
      4.60721378e-04 3.21260677e-03 -1.02515484e-03 3.23050306e-03
      5.90116670e-03 1.42581484e-04 1.47958274e-03 -3.91298719e-03
      -3.26792221e-03 1.25215866e-03 5.58918715e-03 5.53876627e-03
      -8.47122725e-03 -4.13039792e-03 -2.08344194e-03 1.61864900e-03
      -3.25252023e-03 9.31305112e-04 5.71220275e-03 -1.96529436e-05
      -1.07398592e-02 -6.89648511e-03 1.50514068e-03 6.06873725e-03
      2.08292902e-03 -1.63245515e-03 -5.53596881e-04 1.57484971e-03
      -5.33055747e-03 -7.69659784e-03 -4.23858315e-03 9.91420075e-03
      6.04585465e-03 1.88057858e-03 -5.07493783e-03 -2.54182285e-03
      1.86335272e-03 3.36309965e-03 9.43103165e-04 1.30216219e-03
      1.15702273e-02 6.10578852e-03 2.69515696e-03 -7.48519041e-03
      2.73478199e-05 4.55347868e-03 4.62670391e-03 -3.31165525e-03
      -1.02655170e-03 -1.77630540e-02 -1.95579813e-03 2.20351829e-03
      9.15919524e-03 1.19957945e-03 -4.30542789e-03 -2.00753263e-03
      6.07302226e-03 -3.09464522e-03 -1.34400055e-02 2.39938335e-03
      1.37354117e-02 1.45266885e-02 6.59444695e-03 8.44850577e-03
      7.69296428e-03 7.13946158e-03 -9.41968756e-04 -9.14741866e-03
